{"layers":[{"out_depth":59,"out_sx":1,"out_sy":1,"layer_type":"input"},{"out_depth":50,"out_sx":1,"out_sy":1,"layer_type":"fc","num_inputs":59,"l1_decay_mul":0,"l2_decay_mul":1,"filters":[{"sx":1,"sy":1,"depth":59,"w":{"0":-0.09396892574716012,"1":0.20852256452099158,"2":0.06976034660610027,"3":-0.01385503006213998,"4":0.20703126819421494,"5":-0.09321693445298625,"6":-0.1694705463649194,"7":0.022049495567621587,"8":-0.0873798313574092,"9":-0.25872699667463755,"10":0.038260024667944176,"11":-0.2218681931906205,"12":-0.20685117448253856,"13":-0.009781072206379512,"14":0.10332070910420313,"15":0.08756837220755809,"16":0.030656704092572627,"17":0.07443699910540015,"18":-0.10811514458833411,"19":-0.06924904346997714,"20":-0.058556250881694374,"21":-0.24546977686185248,"22":-0.197544068006005,"23":0.018942128724919946,"24":-0.00888857275039055,"25":-0.1782837984421685,"26":0.10736564386401663,"27":-0.015536230281642631,"28":-0.07635772535478898,"29":-0.08258723389626868,"30":-0.08851520220758893,"31":0.09137893848518011,"32":-0.15952800562172614,"33":-0.16768521373778142,"34":0.14216315969399784,"35":0.07704380537871232,"36":-0.05634230127571914,"37":-0.07178049044942303,"38":0.11539781942440983,"39":-0.0892302454017745,"40":-0.15563046415693813,"41":-0.05766358427727303,"42":-0.008998318660602921,"43":0.2636148484739098,"44":-0.14194739035570111,"45":-0.2670211582311951,"46":-0.14563379975513635,"47":0.09230925166865675,"48":0.1475233608115617,"49":-0.14164101809459093,"50":-0.1947834475102364,"51":-0.11044199813842764,"52":-0.22862632125173832,"53":0.21588181581989208,"54":0.015744811863656196,"55":0.14349681586326044,"56":-0.11902005622707053,"57":-0.04372132467774722,"58":0.19706651825881083}},{"sx":1,"sy":1,"depth":59,"w":{"0":-0.021447862089403885,"1":0.09722550318467538,"2":-0.10647513284394877,"3":-0.04820615969856945,"4":0.14964282171569684,"5":0.059015402002530686,"6":0.1723834005323291,"7":-0.0284022990026228,"8":0.27260105776275784,"9":0.007384655542594897,"10":0.04613377208032549,"11":-0.07090259118968772,"12":0.0936721466814643,"13":0.24563942384497314,"14":-0.13909454361265494,"15":0.09429251480033675,"16":0.24812167826476358,"17":-0.050586258306603994,"18":-0.061709693884758575,"19":0.23730415388328316,"20":-0.011051411602925653,"21":0.24975848457635763,"22":-0.05082829927607907,"23":0.08934931445112038,"24":0.12552899859855235,"25":0.09383771086871373,"26":-0.085922823041024,"27":0.14896950823953248,"28":-0.03664931595677052,"29":0.13829883163271955,"30":0.05808266604902898,"31":-0.15409049621556092,"32":0.0803661434077057,"33":0.14233836788946005,"34":0.16766602095860206,"35":0.15929898632434436,"36":0.10723206197916917,"37":0.027649020298002737,"38":-0.055654325863378026,"39":-0.08716687644476641,"40":0.22660632881974474,"41":-0.15875381296006905,"42":0.051097771516410664,"43":0.03352329354772628,"44":-0.01826988169241091,"45":-0.0013739649808793514,"46":0.11110063170437519,"47":-0.016023986399676452,"48":0.24582006656896369,"49":0.0848402998283717,"50":-0.05609116299272467,"51":0.09613928318399961,"52":0.16294118894310725,"53":0.013067815445849949,"54":0.020214509923756972,"55":-0.08157720646440336,"56":-0.0392267240892396,"57":-0.028171711804525174,"58":0.14995748172005932}},{"sx":1,"sy":1,"depth":59,"w":{"0":-0.13427015433138845,"1":0.07669653588748764,"2":-0.24595114668801762,"3":-0.11323612905361388,"4":-0.02729973156520893,"5":0.0056088417479902295,"6":-0.04638058115034789,"7":-0.010747247260840838,"8":0.07639666954938192,"9":-0.1379332902003559,"10":0.04104901713997479,"11":0.011761494493681938,"12":-0.031484618061293594,"13":-0.18855763252127253,"14":0.009272726483747419,"15":-0.1182287005696084,"16":-0.176877593646797,"17":-0.029996224717320132,"18":-0.16654748537119934,"19":-0.18264942686315616,"20":-0.07250815726264707,"21":-0.0021671850243328993,"22":0.03269383801936497,"23":0.030827690513960282,"24":-0.09503764718040353,"25":0.16866752031759827,"26":-0.057465177834142844,"27":-0.06728721936623527,"28":0.04749792727958146,"29":-0.012012347357300843,"30":0.23159787227621065,"31":0.2710771373794168,"32":0.1123169185526583,"33":-0.14793062633162624,"34":0.1874244337253488,"35":-0.17696609370182015,"36":-0.005359328289032037,"37":-0.015306860873418338,"38":-0.05275282367967922,"39":-0.03273712948794252,"40":0.03609393312134206,"41":-0.025929699565721828,"42":0.02312188178910445,"43":-0.12936734691950338,"44":0.11462521725868285,"45":0.07711839603108571,"46":-0.08132580183019641,"47":0.019586440128271994,"48":-0.10052353037568014,"49":0.18773587237019435,"50":0.0017323684435855268,"51":0.18773207972688538,"52":-0.24267479346061244,"53":-0.06083107362092381,"54":-0.019787547401484883,"55":-0.09620206686616913,"56":-0.06012366888957658,"57":0.13644713672870443,"58":-0.1652779152552163}},{"sx":1,"sy":1,"depth":59,"w":{"0":-0.20902419931158317,"1":-0.06463846004975152,"2":-0.1643344260214452,"3":-0.11518902884483144,"4":0.04310255771716825,"5":0.10342059394160928,"6":0.04632153716877572,"7":-0.26641886479647436,"8":-0.11216852575598961,"9":0.002133175101564622,"10":-0.04864510422838289,"11":0.058019062421535074,"12":-0.020182199034992448,"13":0.0950198441533565,"14":-0.04792890549525969,"15":0.250265822185907,"16":0.14419549553909275,"17":0.07881589297460612,"18":0.13807600290655975,"19":0.014176661675333196,"20":-0.07229932708274348,"21":-0.0876252268908403,"22":-0.19278564433562012,"23":-0.3658504197342323,"24":-0.025754069031268367,"25":-0.1999405414988076,"26":-0.19559371389094096,"27":0.3302931667920204,"28":-0.03342339649133452,"29":0.21916151972822778,"30":-0.11535069000510811,"31":-0.08540243619179383,"32":-0.15777648525302004,"33":0.20695379136851552,"34":0.06950899527602226,"35":0.199691281183947,"36":0.20408652724488818,"37":-0.15984456579341236,"38":0.10297428427174682,"39":-0.2438357088845028,"40":0.16620939506248186,"41":-0.04388963758942165,"42":-0.145122298810684,"43":0.1833999326525896,"44":-0.1439434042579925,"45":0.015457236375365512,"46":-0.18416700041453662,"47":0.15030976899284626,"48":-0.19255055533867546,"49":0.17493600229204895,"50":-0.004653104573458807,"51":-0.20773104900143255,"52":-0.1745196991190842,"53":-0.04166370866541991,"54":-0.03247171176487052,"55":-0.05856828278950831,"56":0.004038090864469164,"57":-0.02647533840956913,"58":0.10712278012173808}},{"sx":1,"sy":1,"depth":59,"w":{"0":0.03430683155487551,"1":-0.38101965144471095,"2":0.13973420231773215,"3":-0.0570387597658695,"4":0.01625460999283089,"5":0.0771857044923265,"6":0.030361972333811684,"7":-0.15813696823466708,"8":0.17479886225204533,"9":0.17013858598338152,"10":-0.1266679618845744,"11":0.03834131835143233,"12":-0.07748909916640578,"13":-0.10700933243914529,"14":0.02764882111149961,"15":0.06204555835053689,"16":-0.07062097437261217,"17":0.11356236287872318,"18":-0.052704190722760835,"19":-0.15585418534538373,"20":0.0497314321136733,"21":0.06307754241086554,"22":-0.08078759553314012,"23":0.05006113042896851,"24":0.03540785741759846,"25":-0.0990822725152187,"26":0.21168161471107705,"27":-0.02038986764881764,"28":0.04078597649112,"29":0.1682351578815553,"30":-0.03554443257348682,"31":-0.0707322148842037,"32":-0.15251224563429452,"33":-0.10911816850970803,"34":0.10010470837688269,"35":-0.10486063636405266,"36":0.18579680838511112,"37":-0.0021497535100915,"38":0.08567818770650579,"39":-0.015165824080966598,"40":0.04327524374497834,"41":-0.15062813671043504,"42":-0.14918817951034857,"43":-0.1007344042002806,"44":0.17591364044891059,"45":-0.12560792342979957,"46":-0.10418341337090908,"47":0.15177529076472226,"48":0.029479787059338406,"49":0.07278352481822774,"50":-0.19705559846569606,"51":0.03684577020514746,"52":0.03616632514122141,"53":-0.1798109002374445,"54":0.03292877331121333,"55":-0.2179003842863941,"56":-0.2233668528236835,"57":0.048076084734789505,"58":-0.0788606642587961}},{"sx":1,"sy":1,"depth":59,"w":{"0":0.10119410616373353,"1":0.08785268624502907,"2":0.052986080651493385,"3":-0.06974049891995286,"4":0.16083596916981693,"5":-0.16196584384254506,"6":-0.05128823880985526,"7":0.08509980613735758,"8":-0.10964832884320624,"9":0.1615208081744855,"10":-0.13990084219491472,"11":-0.22697865542108403,"12":-0.1100300261640256,"13":-0.041812446926403304,"14":-0.08511738441720904,"15":-0.001852908718743419,"16":0.11836249870178081,"17":-0.07196215305531672,"18":-0.11721289612792421,"19":0.08164585598552765,"20":-0.013888090166725583,"21":-0.18158520875612644,"22":-0.25184961460811517,"23":-0.05298294101863266,"24":0.005537569612692879,"25":-0.08415624370487884,"26":0.06257940512173472,"27":-0.06532677755252997,"28":0.12663647732861802,"29":-0.08575351511638742,"30":-0.13574459512881226,"31":0.0897331620066004,"32":-0.20248137883935793,"33":0.09714634846648003,"34":0.20275785055291848,"35":0.10121959503378879,"36":-0.06620572559034173,"37":-0.17728771393108042,"38":0.16877203439768979,"39":0.3131234686124112,"40":-0.004806676315449671,"41":-0.10269255683200007,"42":-0.0798614346172555,"43":-0.10707930918621851,"44":-0.06937483776735497,"45":-0.038394433422531155,"46":-0.03886345640249484,"47":-0.032460014938744786,"48":0.14289092661513883,"49":0.0323202650909207,"50":0.21169281576022678,"51":0.0005394048856956291,"52":0.18562358639238555,"53":-0.061540831407610304,"54":0.10800438954498602,"55":-0.03365591708862458,"56":0.04781322194215855,"57":-0.2826822373672496,"58":-0.03974960323322867}},{"sx":1,"sy":1,"depth":59,"w":{"0":0.11312047018307649,"1":-0.15813512308385522,"2":0.23852687703798295,"3":0.20736952355773342,"4":-0.32715055188448733,"5":0.21880386098588925,"6":0.12866048972554395,"7":-0.0579612069359205,"8":0.19153147451733127,"9":-0.013776807516650974,"10":-0.32286407402840334,"11":0.15040895768571586,"12":-0.031096972734581896,"13":-0.22388391043464173,"14":0.11315622586025119,"15":0.04799175313462415,"16":-0.16210117430950252,"17":0.06361367386369249,"18":0.12965321902353794,"19":-0.24647565945202227,"20":0.2620140388170045,"21":0.018166952456908175,"22":-0.20049415351097738,"23":-0.20587627541899325,"24":0.2851941788534044,"25":-0.01734894886821375,"26":0.18468302954862134,"27":0.122459583482461,"28":-0.06828862253149098,"29":0.06549930858142754,"30":0.1631067386794575,"31":-0.24893868974358663,"32":0.046838026610670096,"33":0.008316502790539401,"34":-0.10451538002636701,"35":0.1037251887083633,"36":0.1019855972273724,"37":-0.1143267415178001,"38":0.029552604175889827,"39":-0.07749090681552587,"40":-0.09541894557574819,"41":-0.1368765322634648,"42":0.058281061356531,"43":-0.17631510281929388,"44":-0.05334152832113773,"45":-0.16252164720234694,"46":-0.010186205767414844,"47":-0.17429352296206235,"48":0.24517471500894908,"49":-0.02632519007477202,"50":-0.10155956105747771,"51":-0.2841405406553514,"52":0.05074880102071677,"53":-0.002613719284634244,"54":-0.14179955712614276,"55":0.21901505104316135,"56":0.1640951933501891,"57":0.12215284112415808,"58":0.11479688418704724}},{"sx":1,"sy":1,"depth":59,"w":{"0":-0.13544332259380298,"1":-0.13322320617868574,"2":-0.1678311139672689,"3":-0.05493118214685928,"4":0.10054919070721734,"5":0.06356311750045227,"6":0.03716610098260463,"7":0.06381408519431453,"8":0.003579761062994985,"9":-0.006911469789172597,"10":0.021069690086689886,"11":-0.05104985814132529,"12":-0.06694679276050644,"13":-0.24699680201672916,"14":0.040061956516082076,"15":-0.06819953412038039,"16":-0.16082260752252642,"17":0.05917990954050222,"18":0.08620889226492669,"19":0.1270058985624783,"20":-0.08455206697195354,"21":0.02165089780805506,"22":-0.264729071920276,"23":-0.058324438948713024,"24":0.3072937871167404,"25":-0.03288063221742202,"26":-0.31586014035480536,"27":-0.06443632692370006,"28":0.03971360383727374,"29":-0.12296170015748556,"30":-0.11017993956673706,"31":-0.10607356168093604,"32":0.09797785340492574,"33":-0.032499669193290004,"34":0.030234392516300963,"35":-0.1801576037180617,"36":-0.09309836202761133,"37":-0.11769820972059615,"38":-0.13429415287089722,"39":0.017136525373063448,"40":0.07661502767210192,"41":-0.026716528133049772,"42":0.0554767970163852,"43":-0.029416271447895954,"44":0.0012462957711562412,"45":0.16069174527365804,"46":0.040654317925876045,"47":-0.04011678949711598,"48":-0.014939188264531424,"49":-0.10668135926373234,"50":0.03203875296960554,"51":0.03337716285720023,"52":-0.010726374167597032,"53":-0.09872301259093992,"54":0.14699187673316502,"55":-0.033694539644214594,"56":-0.02229522803351095,"57":-0.15883965722320353,"58":0.05636574258110545}},{"sx":1,"sy":1,"depth":59,"w":{"0":0.1019353565921012,"1":0.13153879087569798,"2":0.04974026119376126,"3":-0.1762392507534829,"4":-0.024197944792493733,"5":-0.1789082941290685,"6":0.060521165508023604,"7":0.09061314803373728,"8":0.19380746632287438,"9":-0.08665006564306299,"10":0.050501704838810994,"11":0.08947445676866482,"12":0.0007212796646628314,"13":-0.09013685862702324,"14":-0.022022840988319085,"15":0.01153095761115358,"16":-0.07246062272704185,"17":0.05371114037710537,"18":-0.13298590623782403,"19":0.10447570325980232,"20":0.009912508691844674,"21":0.039356949856220756,"22":-0.18544405399049968,"23":-0.1186488353605042,"24":-0.1284854765272154,"25":0.08772038921830058,"26":0.031768948283739676,"27":-0.08636038492439052,"28":0.13504804410021481,"29":-0.03278898924510178,"30":0.044268493982673504,"31":0.02819877232998028,"32":0.1713429212330133,"33":0.0483939918912893,"34":0.16254642384030987,"35":-0.13946793877108732,"36":0.06089289025033533,"37":-0.16884141942928976,"38":-0.0712992331954753,"39":-0.18980937061457648,"40":-0.0752329888130515,"41":-0.005845140063797812,"42":0.21045207205912447,"43":0.15977233123122137,"44":0.017089017350042496,"45":-0.010086325321599962,"46":-0.09617558264504261,"47":-0.10034407177936762,"48":-0.038002465512103366,"49":0.15865386911892143,"50":0.24149958566833507,"51":-0.01424369019842916,"52":-0.14039942450942933,"53":0.0027481044654083316,"54":-0.025381391109830904,"55":-0.15000464739651595,"56":0.054447516964968135,"57":0.09472231187554554,"58":0.1257112010903881}},{"sx":1,"sy":1,"depth":59,"w":{"0":0.31174929843060467,"1":0.1354238782649409,"2":-0.026250675791420475,"3":0.27917664450878027,"4":0.049833062075286254,"5":-0.14740532069678208,"6":0.3190298595381151,"7":0.3199557069126311,"8":-0.022971078078423995,"9":0.10111546602589526,"10":0.06556166449198596,"11":-0.014948075501321753,"12":0.06578279853076935,"13":0.11653425656315176,"14":-0.1285996591512329,"15":0.1254051550499012,"16":-0.10864841044146839,"17":-0.07931545706732897,"18":0.14165848224942698,"19":-0.05342408761089939,"20":0.1469985618482849,"21":0.06177429236306949,"22":0.16753715728227728,"23":0.06730180224984907,"24":0.1532908181990881,"25":-0.043368928617657995,"26":-0.12661044281159028,"27":0.01934783889838478,"28":-0.0627464646443485,"29":-0.11086633435468671,"30":0.054448270017282425,"31":0.013592459724426723,"32":-0.16833777135628217,"33":0.13760450908445265,"34":0.06349519358013067,"35":0.10314168629016887,"36":-0.1245102622542779,"37":0.07172798137474487,"38":-0.008285842584235037,"39":0.11861627236701401,"40":0.24211559978538402,"41":-0.18223893858512796,"42":0.12957818169059546,"43":0.34182435786777077,"44":0.06572198628027423,"45":0.029057420507714992,"46":0.10435404091089698,"47":0.013963576978986914,"48":0.32120493262264105,"49":-0.06304271834637863,"50":-0.051673222020231384,"51":0.03323664372253664,"52":-0.056948872478014105,"53":-0.11636782314491903,"54":-0.2061093340967579,"55":0.11507238564808685,"56":0.05519986928539843,"57":-0.06805324891724714,"58":-0.00844470592386608}},{"sx":1,"sy":1,"depth":59,"w":{"0":0.0328643564480967,"1":0.19634813731783757,"2":0.19990600790000712,"3":-0.22850235169788308,"4":0.1664787979232096,"5":0.0017092871927085094,"6":-0.07976201018391046,"7":-0.11888222219007544,"8":-0.0934655585454375,"9":0.12480728571591326,"10":0.021262285055140606,"11":-0.1324078405803407,"12":0.08758081430524522,"13":0.15280919908360152,"14":-0.08119875254852202,"15":-0.0800052114479712,"16":-0.13358469944602366,"17":0.33970934655736373,"18":0.05482229825795688,"19":-0.08730051510257393,"20":0.11794393348626885,"21":-0.18526654586899272,"22":0.1365798764587863,"23":-0.07448457732807337,"24":-0.001506607747830325,"25":-0.04772503534440375,"26":-0.17912214076973615,"27":-0.1820672559663477,"28":0.01503783953417213,"29":0.03552317841315168,"30":0.16960430361767068,"31":0.0339685140633689,"32":-0.0932463816612627,"33":0.0500088386020452,"34":0.03632735068746504,"35":-0.13233113408884134,"36":0.05159050725786733,"37":0.14825655698726317,"38":0.10774526596785225,"39":0.024338083555586323,"40":0.1114119828294333,"41":0.12132492632394237,"42":-0.00898551508229665,"43":0.07806132294500336,"44":0.09518886197457449,"45":0.09465667566844928,"46":0.0970933450943272,"47":-0.06963884595433872,"48":0.18446027664722697,"49":-0.05173739433275157,"50":0.06739109437617803,"51":-0.025874935273897892,"52":0.051785565685603344,"53":0.1616116212910498,"54":-0.07179134857009117,"55":-0.0922745230733735,"56":-0.024407298326567878,"57":0.030263822817668352,"58":-0.22502637121181868}},{"sx":1,"sy":1,"depth":59,"w":{"0":-0.05212214520926663,"1":0.06436956636953368,"2":-0.006731697534308741,"3":0.08252551408116003,"4":0.059025294492945836,"5":-0.18746016117296768,"6":0.19072533198439898,"7":0.10318150330369755,"8":0.047826403672442334,"9":-0.01594368737994797,"10":-0.13896857222556827,"11":0.06563430796382712,"12":0.35699174078857493,"13":-0.12622357421139124,"14":-0.08178338387648011,"15":-0.002701257720960538,"16":-0.05011707151259061,"17":0.12630410397544165,"18":0.02252371838922805,"19":-0.19974573693829353,"20":0.3215372214796503,"21":0.05559624019038953,"22":-0.14422756535627726,"23":0.0679261696694545,"24":0.011512237621464607,"25":-0.14404945796621732,"26":0.05522890613186419,"27":0.13413588794156653,"28":0.05814511380139691,"29":-0.023285691637318237,"30":0.09036900516575473,"31":-0.08524931803063346,"32":-0.10056935663222985,"33":0.268216381228678,"34":0.06948629874303451,"35":0.10294252201329422,"36":0.055743492282895456,"37":-0.13500406283476757,"38":-0.20804830342876307,"39":0.004597481137448213,"40":-0.008861877295794404,"41":0.06387579483145055,"42":0.16062384784406689,"43":0.17507702916352041,"44":0.06658850042736715,"45":-0.18068795735972826,"46":0.10095468586458625,"47":-0.01625650722726543,"48":0.155917756898973,"49":-0.13627252046103877,"50":0.007026617992529737,"51":-0.04216313216712344,"52":0.059087345404110536,"53":-0.034802383175599624,"54":-0.09541957817027247,"55":0.0729155175006271,"56":-0.07504979360894415,"57":0.038036045643370854,"58":0.00428282800092813}},{"sx":1,"sy":1,"depth":59,"w":{"0":0.017251872514831353,"1":-0.3462439583557306,"2":0.18947547909134987,"3":0.12064985103804408,"4":0.018936877479485217,"5":-0.04580199884565359,"6":-0.10066872688256358,"7":-0.1963933219867556,"8":0.012709880260691551,"9":0.2268913306035847,"10":-0.1529095041051279,"11":0.2620454710071974,"12":-0.02235772902323386,"13":-0.14686382476842416,"14":-0.0417724310513238,"15":-0.04618110356535897,"16":-0.1445752628392037,"17":-0.01454629841990275,"18":-0.022127533579300387,"19":-0.15095890103824264,"20":0.1437703303645343,"21":-0.15451817168410426,"22":-0.1193647732007511,"23":0.22050651462931778,"24":-0.3826086850587438,"25":-0.1060217972625773,"26":-0.02480825353103073,"27":0.06733259043261948,"28":0.03987585892599079,"29":-0.09068171480472578,"30":0.09186438409276099,"31":-0.166003284618185,"32":0.021998225923190232,"33":0.03402743490177298,"34":0.17738045119068593,"35":-0.027807128119093836,"36":-0.1217148950728364,"37":-0.1178003304486881,"38":0.1705114286708853,"39":0.15962862809621325,"40":0.02500957429667892,"41":0.332075679256313,"42":-0.19113406625480778,"43":-0.17857320052104908,"44":0.2139353440510097,"45":-0.09247709142569424,"46":-0.026175776639337223,"47":-0.14279114655967454,"48":0.03948733297282766,"49":0.05747780254200717,"50":0.1472529618935625,"51":-0.29210821486992106,"52":0.08862074098203612,"53":0.019798960372397853,"54":0.11315874900054336,"55":0.02104693408268025,"56":0.0619979551344476,"57":-0.08334464751543856,"58":-0.054117015493030544}},{"sx":1,"sy":1,"depth":59,"w":{"0":-0.08380875846747822,"1":-0.12742506849103213,"2":0.1884849617126263,"3":0.019394796248094377,"4":-0.12597008420759118,"5":0.15520211546176083,"6":0.2631403216759357,"7":-0.13384186187351957,"8":0.14137624553136294,"9":-0.0070879294547827,"10":-0.2963795011318732,"11":0.028671937910521215,"12":0.12288392088567333,"13":-0.12359087454133043,"14":0.2248722776091228,"15":0.1365495020527262,"16":-0.11703786558861776,"17":0.09159606139301525,"18":-0.0653096987848423,"19":-0.03169218687274748,"20":0.024540298941013932,"21":-0.059926829593713975,"22":0.36332583937018476,"23":0.04160796307561733,"24":0.08141864055105721,"25":-0.11466888735816812,"26":-0.05089464804711295,"27":-0.04322893252383694,"28":-0.04992875830534649,"29":0.0333864038398231,"30":0.09058419679568173,"31":0.05937032427354782,"32":-0.1818089406725031,"33":-0.2975699418826765,"34":-0.10381296317296679,"35":0.1272713550964716,"36":-0.2601852241003352,"37":-0.17807389837089915,"38":0.21786168324426194,"39":-0.08467588884514604,"40":0.13336292354081292,"41":-0.007943074884993863,"42":-0.01222674698745169,"43":-0.17639684676463882,"44":-0.04262263619662044,"45":0.2521761335958569,"46":-0.2146495896206803,"47":0.0046763214038666075,"48":0.022476213314449853,"49":-0.08600434688169804,"50":0.15190276383211038,"51":-0.15215622433808018,"52":0.1589677878420837,"53":0.08996974513006022,"54":0.08558260271485281,"55":0.09147619877836326,"56":-0.2334046548900172,"57":0.020395870281018753,"58":0.1175997607396748}},{"sx":1,"sy":1,"depth":59,"w":{"0":-0.35555487810977104,"1":0.007661247130525481,"2":0.15841931858989494,"3":-0.3003293828524378,"4":-0.18431324813962857,"5":-0.07708311305061945,"6":-0.33586722929636564,"7":0.18334165664946236,"8":0.013498466038782533,"9":-0.060647120394257154,"10":0.12801831241368355,"11":0.14701772001225777,"12":-0.09681412628128308,"13":-0.0375952811823103,"14":0.07903321130860524,"15":-0.13226003208472056,"16":0.10923100093902763,"17":-0.21617083426928985,"18":-0.15356447874394735,"19":0.15113960726966758,"20":0.058865343529508715,"21":-0.08334875730613893,"22":0.0406416331313582,"23":-0.15989242757344285,"24":-0.30618548822504466,"25":-0.018611008789285385,"26":0.053572655692246236,"27":-0.19002598327601586,"28":-0.11802817267123318,"29":0.01508358209739687,"30":-0.14041937937022403,"31":-0.2550968091436607,"32":-0.04081896144097743,"33":-0.04736867292973471,"34":-0.1262965095936148,"35":-0.06303212890083872,"36":0.008757413462227158,"37":0.03898563984007952,"38":-0.008113737734364676,"39":-0.09676662540106239,"40":-0.15178071982660643,"41":-0.09725572879191506,"42":-0.2501363073032641,"43":-0.016885279424946963,"44":-0.20114706974916685,"45":0.042272095322152564,"46":-0.008870339731754955,"47":-0.1526768870661276,"48":-0.10990736142610483,"49":0.07509009920377516,"50":0.007805499767264515,"51":-0.09574519448216977,"52":0.0146337509567529,"53":0.07691238091522468,"54":0.0734316571650796,"55":0.16738879650251656,"56":0.07845850027781254,"57":-0.10841160667698063,"58":0.0014630452057200149}},{"sx":1,"sy":1,"depth":59,"w":{"0":-0.10191266995663817,"1":-0.12394497853055718,"2":-0.09511329248736161,"3":-0.11812331198965935,"4":0.1821517351857214,"5":-0.02004674471905974,"6":0.3906882771979265,"7":0.08220014020858066,"8":0.18071613462179,"9":0.12293694984972996,"10":0.06457847987227766,"11":0.09877451541170314,"12":0.1269035983357964,"13":0.11040932125342831,"14":0.028249574931134662,"15":-0.04956331587641943,"16":-0.15499670348676478,"17":0.034987156756634746,"18":-0.18142904977986368,"19":0.05133155766161494,"20":0.1511112820643049,"21":0.2512331352030824,"22":-0.009311616889114971,"23":-0.24712041059113896,"24":-0.02836295265356797,"25":-0.1115655109138281,"26":-0.02976458084276811,"27":-0.1101862918424537,"28":-0.04529685486777605,"29":0.03396430689447857,"30":0.044401929385007206,"31":-0.015604707060510963,"32":0.11438423227826554,"33":0.0011915018741510133,"34":-0.004106143843116887,"35":-0.00341486723627001,"36":-0.0012462351575012274,"37":-0.13351086940861015,"38":-0.15559793136890082,"39":-0.12166463472965344,"40":0.11070590026406917,"41":-0.09242304520644369,"42":0.17489112635393977,"43":0.18143889139654998,"44":0.030457400271407108,"45":0.09682854519275934,"46":-0.18952740380109717,"47":-0.18025524346575075,"48":0.10761913627864672,"49":0.07555393964058674,"50":-0.008318612922350322,"51":0.13375630268988287,"52":0.026558215665418893,"53":-0.0875619543347028,"54":-0.29691604740808614,"55":0.1172026468005117,"56":0.13096545890169514,"57":0.19627141773786266,"58":-0.1020050293126543}},{"sx":1,"sy":1,"depth":59,"w":{"0":-0.10699456766708457,"1":0.06982694909629833,"2":-0.06362013464570598,"3":-0.044373850912935706,"4":-0.06966780217685613,"5":-0.05203151442276042,"6":0.07953014388199985,"7":0.09194893200620423,"8":-0.20093000312542403,"9":-0.02704632239237995,"10":0.06473245069519938,"11":0.008930239518212315,"12":0.2041442014843846,"13":0.10197514943003128,"14":-0.057053428528219347,"15":0.061127033107798004,"16":-0.015589406884982879,"17":-0.04495828941136076,"18":-0.09007570579753904,"19":-0.029939725227376816,"20":-0.020590310131432147,"21":0.04537975721239663,"22":0.037985543697377236,"23":0.04499957932176735,"24":0.018378185951521908,"25":0.11108139758500284,"26":-0.15948009800365961,"27":0.21395326354352417,"28":0.009018432649063188,"29":-0.1791071696865127,"30":0.23729183113428207,"31":-0.13820091926340322,"32":-0.14581077278236645,"33":0.1757809366845497,"34":0.24202504730602942,"35":-0.056715882807885094,"36":0.1595150268784156,"37":0.07962304442195567,"38":-0.18122247957809998,"39":-0.051180497709232844,"40":0.08652367159840005,"41":-0.05679583143532965,"42":0.25460625909163204,"43":-0.1449893269094906,"44":-0.08199225733012998,"45":-0.08849170238384288,"46":-0.05059036660478862,"47":0.18611303258975045,"48":0.04219279666035838,"49":-0.04250570406562728,"50":-0.001510803269277545,"51":-0.11907636309303873,"52":0.06136663465177845,"53":0.1293828698488915,"54":-0.0986106896788615,"55":0.022888830747472413,"56":0.06363932879406363,"57":-0.3023724949272737,"58":0.02591766839720122}},{"sx":1,"sy":1,"depth":59,"w":{"0":0.028559399534162783,"1":-0.053688002371778704,"2":-0.10631631316260756,"3":-0.040936872453694186,"4":0.14082802420896948,"5":-0.09476031040231976,"6":-0.1238671048103975,"7":0.021678229271739426,"8":-0.03805433815834776,"9":0.10385358810537108,"10":-0.3293710096308258,"11":-0.16614055984572682,"12":-0.03486965110993328,"13":-0.10532983412650618,"14":-0.019574706405575237,"15":0.12788314052968533,"16":0.3033884040147268,"17":-0.21389292123271098,"18":-0.24036726957889692,"19":0.07672115888889515,"20":-0.1060025385572349,"21":-0.02638871679167203,"22":-0.026358398349545415,"23":-0.082104298159984,"24":0.16954116292447177,"25":-0.08518664388373269,"26":0.07668176214307536,"27":0.08469770826584937,"28":0.025188128578502177,"29":0.030626063162210136,"30":0.03586559145305439,"31":0.03734849502875185,"32":0.15582899626182234,"33":0.03423445314012596,"34":-0.002334136984623801,"35":-0.04403840431591224,"36":0.12905545785553624,"37":-0.027615031274853062,"38":0.1315660507573817,"39":0.12378734774235947,"40":-0.23223982408214613,"41":-0.21437569046511185,"42":-0.002949457652523952,"43":-0.17788912720672673,"44":0.07426220434750654,"45":0.06520257270535745,"46":0.1111683993412658,"47":0.1314747988617182,"48":-0.09389954291807293,"49":0.0704851969454528,"50":-0.17635256096387342,"51":0.016301350601127612,"52":0.06541464447968386,"53":-0.09830453829176666,"54":0.01610027470259236,"55":-0.09740467340830063,"56":0.11170099808131884,"57":0.08765048078565565,"58":-0.15146391467290976}},{"sx":1,"sy":1,"depth":59,"w":{"0":0.07209238172593363,"1":0.22454421738370808,"2":-0.09134909151896738,"3":-0.03321800435558841,"4":0.1832192528772512,"5":-0.15842527140913223,"6":-0.01117614665668418,"7":0.0032724641160960847,"8":-0.016995342002049735,"9":0.007528510727665352,"10":0.03948546769500905,"11":-0.03215375258581161,"12":0.07060045681090844,"13":0.14571959647269256,"14":-0.4469657908797987,"15":0.08849896237326045,"16":0.14313361654673543,"17":-0.07113358040352544,"18":0.1484497715607709,"19":0.27514192791782466,"20":-0.10584145414692182,"21":-0.05213354762971653,"22":0.022631669160676493,"23":-0.014509020711920105,"24":-0.1641340384665468,"25":-0.08317085214595583,"26":0.00796160906112945,"27":0.12212914932277302,"28":0.11683630676651152,"29":0.03444801668525,"30":-0.014146913495261192,"31":0.03353465685966223,"32":-0.047947138079572134,"33":0.14715044967568394,"34":0.23895640153809958,"35":0.007555358132212548,"36":0.0878974214327106,"37":-0.04283210397771136,"38":-0.21914858368465134,"39":-0.09742262488633552,"40":0.0680556934604691,"41":-0.10683012642982875,"42":-0.0499969837197657,"43":0.04461793763228851,"44":-0.11437533984783531,"45":0.16956374627992413,"46":-0.05406986802146077,"47":-0.11475665839940846,"48":0.09563595781142582,"49":0.18470374205852055,"50":-0.07262613843624688,"51":-0.11831825706160275,"52":0.2018488111529686,"53":-0.08077307314034501,"54":0.0006209491823593666,"55":0.13758254417280924,"56":-0.0689985220945834,"57":-0.09976804307259346,"58":0.007700834680094476}},{"sx":1,"sy":1,"depth":59,"w":{"0":0.23877204941225982,"1":0.0858556781870249,"2":0.19633230011267996,"3":-0.1012702858601797,"4":0.036758461986440616,"5":0.19028762144244749,"6":-0.06661062895282602,"7":-0.10603523579635984,"8":-0.02508566174601852,"9":0.07136190784821857,"10":0.1519835298235849,"11":-0.06109656798180912,"12":0.013864066595462925,"13":0.08911720966472798,"14":-0.018984904453754184,"15":0.29527703492409496,"16":-0.0882121846369579,"17":0.1635218082487539,"18":0.018861616875272953,"19":0.20785057422327755,"20":0.05154437037748254,"21":-0.23058286128335187,"22":0.053114498702713474,"23":-0.10148268252404007,"24":-0.29751975475319614,"25":-0.017793336562230366,"26":-0.030983374746342714,"27":-0.1445989591747949,"28":-0.04320121835098799,"29":-0.02056211237264527,"30":0.024783134088004526,"31":0.005438571563875583,"32":0.1132299276088669,"33":-0.0406799161237379,"34":-0.03241960361348052,"35":0.08931561651119856,"36":0.031042859102116568,"37":-0.014061579369837767,"38":0.03385719469521177,"39":-0.002521977422181776,"40":0.016711779950139748,"41":0.1941179780920821,"42":-0.2125151665629137,"43":0.1073469693299464,"44":-0.1678744368584116,"45":0.010951121497771716,"46":-0.11910091748516002,"47":-0.12829891022343945,"48":-0.039277546660257824,"49":0.13175009836055931,"50":0.11037477782547524,"51":0.062470371873861286,"52":-0.09557691141218666,"53":-0.25673580243894256,"54":0.043762474855368744,"55":-0.08354904031028887,"56":0.0592661160825932,"57":-0.05506705542823508,"58":0.09406569283861363}},{"sx":1,"sy":1,"depth":59,"w":{"0":-0.07559222028052467,"1":-0.014811598289472804,"2":0.0026901019069402793,"3":0.09022797566514258,"4":-0.2032379456597839,"5":-0.05313853324989377,"6":-0.2079152872471079,"7":-0.12468436349481576,"8":-0.0409003453892413,"9":0.2372068276998925,"10":-0.2432692091588208,"11":-0.07939473568306187,"12":0.1497671562254036,"13":-0.23634467039773105,"14":0.048324998612909426,"15":-0.12616895892250313,"16":0.24590001777640574,"17":0.03625354985309963,"18":-0.011191148412776684,"19":-0.10307436033670682,"20":0.004579220412423518,"21":0.1588239434031701,"22":-0.18050333510535194,"23":0.19068041624216633,"24":0.002203803461326765,"25":0.14362959265789432,"26":0.09138870461682087,"27":-0.08216191426616289,"28":0.04158301619967828,"29":-0.1900168300639026,"30":-0.10847388210272813,"31":0.09083787405323558,"32":-0.09295810499017962,"33":0.15831980806088256,"34":0.06419156407300171,"35":0.09433291810583805,"36":-0.02029427846590487,"37":0.22434420668693505,"38":0.03187996887461413,"39":0.08545944362493281,"40":0.2735006870827783,"41":-0.0114681430452593,"42":-0.09433995787666459,"43":-0.016361443032094757,"44":0.026436536031098936,"45":0.20313691175815557,"46":0.14961547175292686,"47":-0.0006949572200983263,"48":0.09319913830621415,"49":-0.03976589378827927,"50":0.05508283232586175,"51":0.20664990246676737,"52":0.1743661387309653,"53":0.12648406525640393,"54":-0.08022495397845324,"55":-0.06651031828227098,"56":-0.047081156384128416,"57":-0.020218240436145306,"58":0.14928415007101148}},{"sx":1,"sy":1,"depth":59,"w":{"0":0.004092750934442014,"1":0.14886093113313642,"2":-0.09350481789826327,"3":0.09939068132669393,"4":-0.19994928472617837,"5":0.19146606137816496,"6":0.03502663920450991,"7":-0.11533286225238434,"8":-0.09791243818455803,"9":-0.06692452194000519,"10":-0.0018234425483512643,"11":0.12897004589983488,"12":0.08046774415174432,"13":-0.05438071608597549,"14":0.026631776112742277,"15":-0.020494218709103267,"16":-0.11917625337186911,"17":0.08587128719704552,"18":-0.19188640219753397,"19":-0.06465982728178407,"20":-0.009720604706615286,"21":-0.09593199236013879,"22":-0.1214107273583458,"23":0.009130142523305051,"24":0.029674089287716986,"25":0.026278562969163265,"26":0.13222862618808762,"27":-0.08280733116556944,"28":-0.12215711144193181,"29":0.0760904493104917,"30":0.015474546256743354,"31":-0.039856699520422756,"32":0.012103398722352422,"33":-0.04613932714567974,"34":0.07162543409385055,"35":-0.004285895565913112,"36":-0.10212227093598261,"37":-0.30168848077037663,"38":-0.05410132284744411,"39":0.024876351468808157,"40":-0.0955306502071222,"41":-0.3485724417032634,"42":0.10057406362515683,"43":0.03516769591606454,"44":-0.04729965490811316,"45":0.14448151244913643,"46":-0.08675746079873378,"47":-0.022676542669677408,"48":-0.045496861236524265,"49":0.0026552936475924918,"50":0.12739135063450674,"51":0.0734680868603109,"52":0.05642065722774751,"53":-0.12957664228990148,"54":0.05580151843687626,"55":-0.014832416472034543,"56":0.10739010447666231,"57":-0.18708529433513468,"58":0.034408984914649464}},{"sx":1,"sy":1,"depth":59,"w":{"0":0.05739944809012379,"1":0.11843719311721267,"2":0.36242520582573035,"3":0.12322025642392281,"4":0.11701294252957095,"5":-0.06496210576414813,"6":0.1160790550196506,"7":-0.12309389943680345,"8":-0.04728403479836667,"9":0.19021567181589413,"10":0.22617464950071794,"11":-0.046357957100477624,"12":-0.04588715760115797,"13":0.018944490550943854,"14":0.036098692386659074,"15":0.0474937374283585,"16":0.05380837717718106,"17":0.14639172618789956,"18":0.0431859545914694,"19":0.10796620486016542,"20":0.023043560122989484,"21":0.18797614161811751,"22":0.1386359830674692,"23":0.12835613160368142,"24":-0.003422126108883716,"25":-0.1893865543320948,"26":-0.1672139078753995,"27":-0.048406637239507194,"28":-0.061412415226724755,"29":-0.04771762479344563,"30":-0.07328371943815294,"31":0.1763008240847435,"32":0.39653286358939116,"33":0.0795919859155363,"34":-0.2468401970337509,"35":-0.08753951797902652,"36":-0.10643170346903591,"37":0.06329316687419399,"38":0.13972648930119103,"39":-0.13216691197581468,"40":-0.0207098540588602,"41":-0.11538376265021129,"42":0.08582804769513537,"43":0.08117730709891575,"44":-0.09014874086015297,"45":0.12956490214521815,"46":-0.11177233046966065,"47":0.20043081974808274,"48":0.04399417404673699,"49":-0.006394344427024076,"50":0.004488194484043249,"51":-0.169448434270182,"52":0.023891276225634524,"53":-0.023004250853122174,"54":-0.14639474735357882,"55":-0.21242527340736422,"56":-0.09907890136774788,"57":0.11581012246991693,"58":-0.006038583162054407}},{"sx":1,"sy":1,"depth":59,"w":{"0":0.017025433071097888,"1":0.06427973468426676,"2":-0.17490504502828874,"3":0.14605046937347463,"4":0.05903851133111357,"5":-0.13822323548855112,"6":-0.10254741971070852,"7":-0.02237406898502581,"8":-0.044226001859217726,"9":0.0974791410233317,"10":-0.14904446849983957,"11":-0.1542351243686159,"12":0.01940909173753241,"13":-0.046749662751803,"14":0.14087011473622388,"15":-0.08354440618773651,"16":0.08096611486473551,"17":0.08900779054960031,"18":-0.11189745942119922,"19":0.15465277399016422,"20":-0.062040978981490365,"21":0.0585272012674673,"22":-0.05125104081065436,"23":-0.06126202789305889,"24":-0.15373589080318031,"25":0.013323007246223411,"26":-0.036804837764464166,"27":0.10226223296493751,"28":0.13912115969500063,"29":-0.08834567982884477,"30":0.06937009823408685,"31":-0.06559201973417614,"32":-0.10068022474713186,"33":-0.23436229458115804,"34":0.10029468679543843,"35":-0.11542598401790076,"36":-0.07211380761836342,"37":-0.07200246281196934,"38":-0.04746367214101698,"39":0.01181253516197337,"40":0.08085841444159006,"41":-0.06052059795510661,"42":-0.025040351059211607,"43":-0.1599694944997738,"44":-0.3455090277371465,"45":0.17569851892825913,"46":0.13192725100061758,"47":0.021782747228679882,"48":-0.054583233005850426,"49":-0.1452261956912807,"50":0.19906453185442266,"51":0.014413112177321394,"52":0.02278409342616381,"53":-0.048419083052567716,"54":0.14301170850356984,"55":-0.1381315613836811,"56":0.061380773272981616,"57":0.07509527101714962,"58":0.042225073275924604}},{"sx":1,"sy":1,"depth":59,"w":{"0":-0.025158274800712394,"1":-0.016092490871931278,"2":0.15000213614202387,"3":0.12755726006774484,"4":0.22607216147821574,"5":0.02379651279174061,"6":-0.020116381126867176,"7":0.20159664699155957,"8":0.2869976052063055,"9":0.02254949694924016,"10":0.0488729457168664,"11":0.004532035173095226,"12":0.16975589184531997,"13":-0.23284021612805803,"14":-0.001147869519265288,"15":0.06061425516866569,"16":-0.31033689051656327,"17":0.04725637781169519,"18":-0.01452083319807067,"19":-0.12418737728633289,"20":-0.0903692634181693,"21":0.012616571113402237,"22":0.12078274489968159,"23":-0.16597689910719418,"24":-0.15865317138992507,"25":-0.07373428533673695,"26":-0.007249374901812626,"27":0.11119797718834525,"28":-0.026631418898890882,"29":0.05862552126449122,"30":0.1678418454994673,"31":-0.2460790113830367,"32":-0.0007785878774711041,"33":0.1333734119477213,"34":0.025908275243512063,"35":0.007848031768440376,"36":-0.16047902124909924,"37":0.020116802408572075,"38":-0.25700586952968446,"39":0.04523642250733373,"40":-0.06266305187342111,"41":-0.12298208427676127,"42":-0.02887471800325865,"43":-0.045773050594931794,"44":0.11878144616730342,"45":0.10905690417560003,"46":-0.04769891631456415,"47":-0.14305881142856153,"48":0.007982288168449172,"49":-0.22708058271423676,"50":0.1318190184789006,"51":0.08066454282420797,"52":0.1802788149213566,"53":-0.000506474112455496,"54":0.11052847277597055,"55":-0.05643596340519194,"56":-0.1360613012380745,"57":0.10192462679545135,"58":0.03172122116408769}},{"sx":1,"sy":1,"depth":59,"w":{"0":-0.0031204124161086206,"1":0.06831280881459245,"2":-0.14817411819331067,"3":-0.028684272119110787,"4":0.07082071485718555,"5":-0.042570447393305094,"6":-0.1372372216875371,"7":0.21313393022460014,"8":0.1539611380183183,"9":-0.017157932960290594,"10":0.06640310677773265,"11":-0.052960653064435044,"12":-0.0014495147590555966,"13":-0.05476788581822668,"14":-0.16676162459152327,"15":-0.09961978830465955,"16":-0.18143159415909496,"17":0.10572042407074587,"18":-0.33234814741085233,"19":0.12713193494416206,"20":-0.12963835985467256,"21":0.1736071120934323,"22":0.15607372839792913,"23":0.11152170557429189,"24":-0.16225831532845728,"25":0.1631520034722654,"26":-0.16269187078117137,"27":0.022632754270748467,"28":0.081138122026125,"29":0.0002491223871248499,"30":0.05455443987148561,"31":-0.07627103947653063,"32":-0.004830252189113263,"33":-0.014788513053263086,"34":-0.08714235321120196,"35":0.08783935829248483,"36":-0.04767210133025143,"37":0.017547097903139294,"38":0.017960239058921544,"39":0.11948050956342328,"40":-0.01868796242015719,"41":0.09461718115452122,"42":-0.008433193662959117,"43":0.05491575708324395,"44":0.025474667776957283,"45":-0.02725553547668649,"46":-0.0906760321722011,"47":-0.1509607254657599,"48":-0.2548952107996908,"49":-0.08430937176308427,"50":-0.02055519892334008,"51":0.02170478832012432,"52":-0.005004161460969714,"53":-0.05221163085186381,"54":-0.10738514374946156,"55":-0.02296127857539803,"56":-0.06537030564317946,"57":0.045726486660589274,"58":0.2778524934799943}},{"sx":1,"sy":1,"depth":59,"w":{"0":0.04788190494754175,"1":-0.10039394003750077,"2":0.07291393778114943,"3":-0.09942715349721362,"4":-0.11954019844985779,"5":0.3485167529491134,"6":-0.044971324016085557,"7":-0.1482745712330402,"8":0.14859918079140003,"9":0.014349116159456925,"10":-0.1839112311746738,"11":0.3083845097557488,"12":-0.037028415777598155,"13":-0.3838455257657236,"14":0.21685425033134936,"15":0.007906293231820427,"16":-0.2042601437070275,"17":-0.10558822575892618,"18":0.045444560011184666,"19":-0.24539837804190495,"20":0.04968573905360718,"21":-0.1397649100439063,"22":-0.1183637987499604,"23":0.12246623861867197,"24":0.012922935690094122,"25":-0.16436184998272588,"26":0.11335428936394246,"27":0.23885684567789703,"28":-0.34591259422892184,"29":-0.14607298090989065,"30":-0.05781958377330813,"31":0.16840947462620773,"32":0.20559221221841248,"33":0.01841771732993267,"34":0.07825761481103292,"35":0.1863669886400293,"36":-0.03907279767263084,"37":-0.08769540974929813,"38":0.09459981445207256,"39":-0.034434144912776514,"40":-0.006742312508517874,"41":0.012130989612625683,"42":0.04069150975071161,"43":0.2842598112905164,"44":0.06447843791597307,"45":-0.0935988933303705,"46":-0.027589255940847705,"47":-0.0032942177003722783,"48":-0.004233051331403667,"49":0.12506705632655996,"50":-0.2649438349277285,"51":-0.1285585435387217,"52":-0.21328333101441568,"53":-0.03724867474150459,"54":0.07111419423400336,"55":0.1866492087138621,"56":-0.06100111193095937,"57":0.06196342858442813,"58":0.07830017979257993}},{"sx":1,"sy":1,"depth":59,"w":{"0":-0.08221575956693776,"1":0.039547318683743976,"2":0.05825446201854557,"3":0.0036736656609580544,"4":-0.25400567081087144,"5":0.103925908139131,"6":-0.02307935642524613,"7":0.07814074557488468,"8":-0.1863154432956458,"9":0.11053393536813787,"10":0.028517614986501325,"11":-0.09047365633571028,"12":-0.064841443889507,"13":-0.02131001418049897,"14":-0.11409038118573679,"15":0.15781838608797724,"16":0.016892976107752818,"17":0.028837489695307226,"18":0.08182290109697234,"19":-0.08717817934287883,"20":0.1559922786967608,"21":0.10262405314150067,"22":0.19306448202066528,"23":-0.09581984135227321,"24":0.16113326636471767,"25":0.07066678504097446,"26":0.2600669576549706,"27":0.028061386905413137,"28":-0.022457954110749138,"29":-0.1360634673833684,"30":0.16227303839258983,"31":-0.0622323037009012,"32":-0.28080900282970295,"33":0.15070607114578555,"34":0.05661653721483138,"35":-0.055222975157295504,"36":0.05984735540000478,"37":0.009427623142638614,"38":0.03930127039047522,"39":0.05322212167479597,"40":0.06650482262980788,"41":-0.014551374198191845,"42":-0.007132889193764883,"43":0.0630153647126491,"44":-0.09411220295270839,"45":-0.07211254113744567,"46":-0.05149735367708866,"47":-0.030504636877239918,"48":0.050549055998128145,"49":0.011465566417476342,"50":-0.17804836377473338,"51":-0.053206415578193784,"52":-0.05943848853748597,"53":0.0987099821270514,"54":-0.06171066868828957,"55":-0.22096553510946973,"56":-0.0029270712885546587,"57":0.06698334454001166,"58":0.10297256553995522}},{"sx":1,"sy":1,"depth":59,"w":{"0":0.09853492182844921,"1":-0.14772911257185464,"2":-0.19760647762865235,"3":0.14605823161610407,"4":-0.2271941734236313,"5":0.026450930093018618,"6":0.29366678281603115,"7":0.003363873591614551,"8":0.12411584299001552,"9":-0.04315598722531631,"10":0.10264308247127868,"11":-0.029160743317665626,"12":-0.05695862566051489,"13":0.02893357687256938,"14":-0.05842062896512896,"15":0.07542824178311504,"16":-0.12923846219693,"17":-0.10780062263778023,"18":0.1653972173944093,"19":0.2095471221377277,"20":0.0019759877505884237,"21":-0.019594694624400794,"22":0.1346111078535802,"23":-0.16481091112797056,"24":-0.022402780009488935,"25":0.02303995660289913,"26":0.06838632967562906,"27":0.046032127221353906,"28":-0.31109028763706403,"29":0.31129570262557216,"30":0.04649212689720822,"31":0.06278212062144069,"32":0.0521008113010617,"33":-0.1348225173707343,"34":0.050230940079511774,"35":0.06337390187779128,"36":-0.011091342340666811,"37":-0.08082820120841452,"38":-0.19714430112329523,"39":0.005823225391373259,"40":-0.13199589286348826,"41":0.060083948836531204,"42":-0.040081350928196036,"43":0.07043171597130292,"44":-0.11025197966493733,"45":-0.1144109292956493,"46":0.03018232343251574,"47":0.0807756550020598,"48":0.23139846627952634,"49":0.17155754775096999,"50":-0.24306151592257133,"51":-0.10725049732122899,"52":0.12249490946365761,"53":-0.043519007580042866,"54":0.0930610958974046,"55":0.10694060471889642,"56":0.09862213724982344,"57":0.11816596133599938,"58":0.014107030871396087}},{"sx":1,"sy":1,"depth":59,"w":{"0":0.11797442683135777,"1":0.12813013304215612,"2":0.12759609716587478,"3":-0.25660719583755265,"4":0.07631069322764922,"5":-0.05747734977368469,"6":-0.098787909930107,"7":0.09508781841213582,"8":0.15968054837080817,"9":-0.07658933283447959,"10":0.20803710925910218,"11":0.11025447235281945,"12":0.0006879037713047533,"13":0.1711568500196129,"14":0.059654774559403476,"15":0.07009638384192421,"16":-0.04454804141933149,"17":-0.13520102729874922,"18":0.10998909581938728,"19":0.2371205073735209,"20":-0.2813236614459071,"21":0.17458557905886998,"22":0.011886850954757005,"23":0.02926383522123119,"24":-0.06298436346461016,"25":-0.12233654735129915,"26":-0.32344749365117414,"27":0.03530289861533227,"28":-0.1692824845343121,"29":0.06148793448102704,"30":-0.06627490150170114,"31":0.05200131424559062,"32":-0.16685500530938382,"33":-0.014077698815002444,"34":-0.14367879900160374,"35":-0.18510693951592652,"36":0.07841728242952024,"37":-0.02834144871205099,"38":-0.23086279536226437,"39":0.012111053458299666,"40":-0.1445426947633716,"41":-0.16563900155784608,"42":-0.001917343082130916,"43":0.07241551994798422,"44":0.016880017515124492,"45":-0.05953899307789212,"46":-0.10488877224017751,"47":-0.10957966973620706,"48":-0.07311746171378353,"49":0.10225750141818504,"50":0.11597161491870367,"51":0.11850380159743215,"52":0.0234087331381296,"53":0.15629996509565422,"54":-0.07562073344098301,"55":0.026369246839397047,"56":-0.025196162715535268,"57":0.0879633234696242,"58":-0.3203949467519179}},{"sx":1,"sy":1,"depth":59,"w":{"0":-0.2599140461872039,"1":-0.0027161584709092454,"2":-0.08533350600479883,"3":-0.24124821341813782,"4":0.1978005173757939,"5":-0.18222020031363856,"6":-0.1417810082209116,"7":-0.0004543289291222966,"8":0.02741310127646613,"9":-0.2070629648170851,"10":0.00872272451889449,"11":0.03422910415295871,"12":-0.04835471871604514,"13":0.0004093814088846683,"14":-0.19544280698575128,"15":-0.1402939670965794,"16":0.07900773308103465,"17":0.07060352058614996,"18":-0.1735540885356098,"19":-0.05998538694206616,"20":0.08167188195637799,"21":-0.4968013475669696,"22":0.05161750456968918,"23":-0.04054868595762429,"24":-0.23364091858240285,"25":0.08590824175416283,"26":0.13622789385796974,"27":0.02416486138507954,"28":0.17413476046733364,"29":-0.1812271185033609,"30":-0.0444302569331259,"31":-0.06254549223182408,"32":-0.16563586070773426,"33":-0.20659916385151847,"34":0.012690875307192909,"35":-0.1055505313918442,"36":-0.03074266199586143,"37":0.045526873008805306,"38":0.14253639260148857,"39":-0.19454183878109277,"40":-0.016823137206140176,"41":0.09016437635830116,"42":-0.27523794303581806,"43":0.042030267332753724,"44":-0.065707823667899,"45":-0.22362966087494993,"46":0.1016019870484323,"47":-0.0024014268644252227,"48":-0.18780897356608361,"49":0.00025158842835505934,"50":-0.0007166051779910939,"51":-0.19803368014084885,"52":0.07154244665402598,"53":0.10796415605113918,"54":0.04850008229529337,"55":0.07861449401701456,"56":0.22937650058481052,"57":-0.06192732534311519,"58":0.04528128040376807}},{"sx":1,"sy":1,"depth":59,"w":{"0":-0.30569337174127437,"1":0.17945033850477268,"2":-0.3494792308267893,"3":-0.22932492283157266,"4":0.35831389585057966,"5":-0.07719052170235047,"6":-0.12328530554254215,"7":0.1046459408445253,"8":-0.17346857233436003,"9":-0.03284852898231452,"10":0.2922506860612326,"11":-0.18242424385870717,"12":-0.03233919136560448,"13":0.2394347887162665,"14":-0.15521324508611198,"15":0.12235319982793566,"16":0.1537926007206031,"17":-0.0639877495821157,"18":-0.20231983388287073,"19":-0.10629764716730573,"20":-0.09870753545667173,"21":-0.24216022444355798,"22":0.14774722549653255,"23":-0.11645511937949903,"24":0.056179972279963526,"25":0.049916247154351605,"26":0.1099323873118928,"27":-0.07542564319587597,"28":0.01823956010783187,"29":-0.1387012778401665,"30":-0.05674789995196933,"31":0.0701486321117926,"32":-0.10537362646774003,"33":0.06792489581934678,"34":-0.13853190943640858,"35":0.12346570840610431,"36":-0.2577059217269368,"37":0.010365604603428667,"38":0.2387574411718927,"39":-0.050572364925277356,"40":-0.07507590294965658,"41":0.09835062859132339,"42":-0.1691005636891673,"43":-0.1763116734891866,"44":0.11814437802537474,"45":-0.060468659937956096,"46":-0.046349313647039335,"47":-0.019252680596612885,"48":0.12032957996575691,"49":-0.1607670050323426,"50":0.12658053228125082,"51":-0.07849983938594128,"52":-0.11751185603608641,"53":0.23920477171653004,"54":0.09030513899577962,"55":-0.07307869996220462,"56":-0.0763146208378945,"57":0.06238528775893646,"58":-0.19945597856569092}},{"sx":1,"sy":1,"depth":59,"w":{"0":-0.05420978340703166,"1":-0.1369876309359764,"2":0.0022630251449367845,"3":-0.19003028229666308,"4":-0.05204690106651765,"5":0.18827162304882178,"6":-0.14755756409101825,"7":0.1963557829944397,"8":-0.09544904347948498,"9":0.03225488641637541,"10":-0.034073607200585325,"11":-0.19930391854886767,"12":-0.15021171800966826,"13":0.09178523353744253,"14":-0.07053232476544977,"15":-0.13779346695891956,"16":0.09551900263975677,"17":0.09950981152669214,"18":-0.03808836786250844,"19":0.1662904614495076,"20":0.13109879931878216,"21":-0.30583196842143207,"22":0.09133377676391834,"23":0.0060462107615545735,"24":-0.13500615838825822,"25":-0.05719274773986449,"26":0.13565588734399547,"27":-0.08305224867595251,"28":0.15550812742209028,"29":0.031019803329003236,"30":-0.041311814216085554,"31":0.02574625673037387,"32":-0.12500114753030986,"33":-0.037825655443663994,"34":0.07659887911472194,"35":-0.12886579334992598,"36":0.15712839565814482,"37":-0.051721021181851894,"38":0.1357588981493228,"39":-0.1192256118355105,"40":-0.08205127982912475,"41":0.09086396821329902,"42":0.09087201007932201,"43":0.04605617029771948,"44":-0.037164568563349036,"45":-0.09516615494822686,"46":-0.031245055959672467,"47":-0.07577139243543202,"48":0.017661617255667065,"49":-0.004419778002567231,"50":-0.08219476388673945,"51":0.05507051001653158,"52":-0.05460555335701781,"53":-0.2034194948875335,"54":-0.07995357763855074,"55":-0.031253643252862215,"56":0.08083597443521705,"57":-0.07351076641637143,"58":0.10050708309684298}},{"sx":1,"sy":1,"depth":59,"w":{"0":0.20966420345956524,"1":0.03409155654326744,"2":-0.0006790102628498104,"3":-0.02357208791462851,"4":-0.16489730158679927,"5":0.11878752501036563,"6":0.21523967749754364,"7":0.19222348785896112,"8":-0.0017583284283566017,"9":0.01110119353683208,"10":-0.2470074890916023,"11":0.13196244668604618,"12":0.025358308125517547,"13":0.21472661153979264,"14":-0.09719787906597777,"15":0.22279310852708362,"16":0.038373004048545545,"17":0.03190793087394022,"18":-0.025313268472986847,"19":-0.05227967665290716,"20":0.045026031309255775,"21":-0.13186446802826876,"22":0.1304020270093446,"23":0.12020640111136195,"24":0.20116025754016817,"25":0.010619312405648958,"26":-0.1616870693147088,"27":0.22964092166457317,"28":-0.001143783250861142,"29":0.20247529457259744,"30":0.1819140280116228,"31":-0.002671098108629785,"32":0.03941884729145141,"33":-0.15944365292633028,"34":0.0032979257612593097,"35":0.03812572205890031,"36":0.06891146686415855,"37":0.040508623879970555,"38":0.01881489143281327,"39":0.17370950916883826,"40":-0.0038461692006279517,"41":-0.2373395750703311,"42":-0.05145711542385147,"43":-0.10650228773879096,"44":0.15717272914413993,"45":0.20557001290031823,"46":-0.1824685859795819,"47":0.12663059523989223,"48":0.029545712328498334,"49":0.2501842275900067,"50":0.040476643102327264,"51":-0.08876802856233361,"52":0.029597230845993614,"53":-0.12984943948491864,"54":0.10009392601901597,"55":0.1194943255945035,"56":-0.11917821928475311,"57":0.041730844752988015,"58":0.003026590007306942}},{"sx":1,"sy":1,"depth":59,"w":{"0":0.12872279259344663,"1":0.012952196478602655,"2":0.00196974485795192,"3":-0.18151599090036638,"4":-0.09626650581072897,"5":-0.036065928289852875,"6":-0.2273806716318922,"7":-0.15821200589002665,"8":-0.10117264932865179,"9":0.10378601315033947,"10":-0.024120279473324555,"11":-0.16379219462478103,"12":0.03700546148840443,"13":-0.026233362993678875,"14":0.10118898751269502,"15":-0.18783828760991306,"16":-0.02829970293243285,"17":-0.10452201585876993,"18":0.13162543756011044,"19":0.2535570430696657,"20":-0.051989394500477015,"21":-0.31989156960940085,"22":-0.013108496231651015,"23":-0.01200791319909418,"24":-0.08234726440036846,"25":0.13507571573288793,"26":0.012216079749558842,"27":-0.09283695949696281,"28":-0.02231485985689726,"29":0.10076202310745706,"30":-0.04401151010839672,"31":-0.04270674903043194,"32":-0.21362157977217397,"33":0.17531210730058594,"34":0.2147499469263422,"35":0.08705354453932267,"36":-0.09238112600227259,"37":-0.10136869557507362,"38":-0.10516723125827826,"39":-0.08840939686086449,"40":-0.13391172983415897,"41":-0.028845135867926325,"42":-0.052831662430684226,"43":-0.133046631907078,"44":0.130812485071437,"45":-0.19982565377766565,"46":0.2424666928580997,"47":0.16880901774994791,"48":-0.03689664105238244,"49":0.07662488347273622,"50":-0.06467521318480565,"51":-0.08079534862400482,"52":0.06709235566891744,"53":0.2406254208058576,"54":-0.09935682280973675,"55":0.01415570054780527,"56":0.11475733648001142,"57":-0.1411663645129064,"58":0.05624522106138113}},{"sx":1,"sy":1,"depth":59,"w":{"0":-0.022063812533125355,"1":-0.08927616336485715,"2":0.10377777581066769,"3":-0.3058443194456786,"4":-0.23768743803642656,"5":-0.11276242578327168,"6":0.1010903646132616,"7":-0.049004851599721753,"8":-0.24139902831890622,"9":-0.02821074308146844,"10":-0.07401045108901638,"11":0.14527093406117206,"12":0.10569327204442183,"13":0.08166159511061805,"14":0.15674397854297972,"15":-0.03985755359699092,"16":0.17517385943721417,"17":0.0683499298470618,"18":0.03348324328389085,"19":-0.017814842166560377,"20":0.03440876787104384,"21":0.23110082314546954,"22":-0.09101381339270063,"23":-0.10293839953728459,"24":-0.005678461198427897,"25":-0.005608328355757258,"26":-0.2187034485550384,"27":-0.16484047027547774,"28":-0.04708816600379105,"29":0.00873266177052695,"30":-0.009289208761013083,"31":0.004577753030119998,"32":0.00028335886105769584,"33":-0.2752749553930552,"34":-0.132223399669769,"35":-0.12350448046747159,"36":-0.03304012755101577,"37":0.003732890710912977,"38":0.26393960420003426,"39":-0.15354325890938436,"40":0.026772775215054015,"41":-0.13957990343811008,"42":-0.0509733634616771,"43":0.13287996309220734,"44":0.151609468123417,"45":0.12579532699247156,"46":-0.18732967552128432,"47":-0.01538284429526221,"48":0.2468337026546543,"49":0.16525256124403528,"50":-0.11104608493128182,"51":0.15038672116115767,"52":0.262860900026918,"53":0.10408334970224929,"54":0.005183054507788483,"55":0.0057570715299534005,"56":-0.08863685046856142,"57":-0.05932559358024392,"58":0.003422694948859279}},{"sx":1,"sy":1,"depth":59,"w":{"0":0.19013045144455343,"1":0.04877836692365643,"2":-0.10496732888895283,"3":-0.044175981764083015,"4":-0.03672039094351771,"5":-0.185050406873044,"6":-0.11524110897201824,"7":0.08389753656367988,"8":-0.12036427641864003,"9":0.07745062743347084,"10":-0.14750530725687355,"11":-0.05974208193801559,"12":0.05901059706705362,"13":-0.21642357050810718,"14":-0.24043655874841288,"15":0.030354684826498834,"16":0.07778213962659125,"17":-0.02952259656490071,"18":0.2362122775426026,"19":-0.21184265269560357,"20":0.4166628376818388,"21":0.01581434860277215,"22":0.08815844028529306,"23":-0.11091715790928344,"24":-0.23796908723578167,"25":0.0660809511313254,"26":-0.025995014612087003,"27":0.13031862394422264,"28":0.048214709031333514,"29":-0.16755258934577397,"30":-0.11724333029119091,"31":-0.13352977316954798,"32":-0.19571055986233166,"33":0.15527461453159505,"34":-0.043526673791112504,"35":0.03382805413803636,"36":0.2855603204004638,"37":0.12180551787432234,"38":-0.14036218576695034,"39":-0.09385289268531627,"40":-0.22633571126328483,"41":-0.01040009916190431,"42":0.06829410616869487,"43":-0.16513688203139432,"44":-0.3166737600623315,"45":-0.01173853987276716,"46":-0.1430603690913137,"47":0.22459113635753525,"48":0.17499141146310548,"49":0.029109432323225534,"50":0.0282043155119406,"51":0.015455437078611961,"52":-0.12263433504565065,"53":0.11709539521107483,"54":0.04820884836133302,"55":-0.23193271679667216,"56":-0.06177914502540602,"57":-0.1347554429519221,"58":-0.20167211720736059}},{"sx":1,"sy":1,"depth":59,"w":{"0":-0.2007086646267896,"1":-0.1319655398960086,"2":-0.2819201298844198,"3":-0.19471280174564876,"4":-0.023882774597895014,"5":0.13367284179217787,"6":0.05948702793445174,"7":-0.1225017908133378,"8":-0.15957743298572832,"9":0.24181476623457765,"10":-0.16298495569726426,"11":-0.08484453010210571,"12":-0.06006749453221455,"13":0.04941863881467442,"14":-0.014069543570663609,"15":-0.07191719694161593,"16":-0.068535785133241,"17":0.12015974605717536,"18":0.12301643132011411,"19":-0.18862303061248,"20":0.10808515986587647,"21":0.17482848841662393,"22":-0.10352218093507551,"23":0.14413894200871427,"24":0.017929868861227136,"25":0.04271342479230477,"26":0.16715937748649393,"27":0.1461601435461195,"28":0.0010981735552457715,"29":-0.2814560444345101,"30":-0.06796437421955433,"31":0.11182186750924497,"32":-0.04201025283565906,"33":-0.10015647001377238,"34":-0.04701437641484005,"35":-0.09245987719114529,"36":0.07231003067718304,"37":-0.36164000553489706,"38":-0.029196587775915703,"39":-0.09965672145940449,"40":-0.015702480329249834,"41":-0.18354115203667515,"42":0.012138802765516078,"43":-0.04193403094641903,"44":0.26479785306671966,"45":0.19016659312256237,"46":0.018830142855729166,"47":0.08316934889907353,"48":-0.020071326548444655,"49":0.16780154987070797,"50":-0.12432048847107692,"51":0.13807196190358026,"52":0.2625860983951755,"53":0.02141911283902011,"54":0.15030375674045363,"55":0.07732281209494564,"56":-0.10337304121133405,"57":-0.19898091732312528,"58":0.3500519450532352}},{"sx":1,"sy":1,"depth":59,"w":{"0":0.010013975615020801,"1":-0.08620310056939177,"2":-0.061282746288863814,"3":-0.03080996748392823,"4":-0.18936513424727122,"5":-0.10118323102502658,"6":0.16590141039663606,"7":-0.4166436941923259,"8":0.26736864078949546,"9":-0.033916296479513226,"10":-0.4925332299637126,"11":0.13914389867222124,"12":-0.019468151873802023,"13":-0.3355602796459656,"14":0.20814191352845834,"15":0.012374983299570885,"16":-0.3283973703533292,"17":0.10670547865819008,"18":-0.003440964433655219,"19":-0.24289421021631666,"20":0.1579376864175006,"21":-0.023027006268476532,"22":-0.26584791726096,"23":0.24650503213001163,"24":0.18226625938195634,"25":-0.1813607091745779,"26":-0.1160939290560373,"27":-0.2576684300165452,"28":-0.07521649241862241,"29":0.08538718721676528,"30":-0.024186257604271278,"31":0.05479996881193668,"32":0.07715453828205096,"33":0.03244494047615418,"34":-0.09818261578829741,"35":-0.06819422397025222,"36":0.1557005191467364,"37":-0.03782594166884346,"38":0.11437326364393009,"39":-0.0868751943395508,"40":-0.2525443381769964,"41":0.052954029527541385,"42":0.02693101631933579,"43":-0.054231496054467435,"44":0.02801258793789132,"45":-0.0774278456513521,"46":-0.08812679412305403,"47":0.17448265731789486,"48":0.013007916080353196,"49":-0.16626435854677438,"50":0.16842700280856662,"51":0.2924154269604898,"52":-0.20982880686477157,"53":0.05590046035199956,"54":0.17298949941886693,"55":0.10550242979887414,"56":0.2929671075218604,"57":0.17966070963291206,"58":0.09014407413898075}},{"sx":1,"sy":1,"depth":59,"w":{"0":-0.18998212120151514,"1":-0.20224393167564123,"2":-0.03156633055587512,"3":-0.2542035951355116,"4":-0.2889979580927965,"5":0.073805896833037,"6":0.007557958629298175,"7":-0.1552298511159957,"8":0.20478055496225603,"9":-0.25500837852053615,"10":-0.14914300543574532,"11":-0.09988454774715519,"12":0.13083362648439426,"13":-0.20874300758219785,"14":0.12596574826203474,"15":-0.07306620232310113,"16":-0.1371537582706334,"17":0.10894934799053892,"18":-0.2375698846218261,"19":-0.01113029599081553,"20":-0.05571697740939796,"21":-0.1773029896420179,"22":0.18585074091329484,"23":-0.031061194731718398,"24":0.03734199441195582,"25":-0.050708980633747264,"26":0.048124734117936156,"27":-0.18077194620610393,"28":-0.00006404541512782678,"29":0.16747698703351252,"30":-0.3476408473744909,"31":-0.1503906004282683,"32":-0.0043819913804831155,"33":0.10125369312824571,"34":-0.13552103886362757,"35":0.06636205099099911,"36":-0.07040266385239086,"37":-0.02350244228029345,"38":-0.18894824470804092,"39":-0.043478074613261336,"40":0.04545775515426396,"41":0.06058590672254141,"42":-0.23037073274763722,"43":0.04958513091591503,"44":0.08410026110104422,"45":-0.0837861331261768,"46":0.016797484587320614,"47":-0.06559918630447074,"48":-0.054633888287721234,"49":-0.07895341793976446,"50":-0.05508926363329731,"51":-0.14975032243435787,"52":0.20341673444176558,"53":0.17401911528962505,"54":0.13682809978495675,"55":-0.17510770664659298,"56":0.27838190372659866,"57":0.22671673003372905,"58":-0.10135131278000867}},{"sx":1,"sy":1,"depth":59,"w":{"0":-0.20525351037728878,"1":0.18330607378455469,"2":0.15630788588994532,"3":-0.330213791739114,"4":0.10551708291553087,"5":-0.2536485793923371,"6":-0.13798616151297066,"7":0.003945141495654798,"8":0.24939493587620531,"9":-0.09906918188975146,"10":0.026648109815057792,"11":-0.22838287986017236,"12":-0.06459279391050285,"13":-0.13561368111745753,"14":-0.005370574746952412,"15":-0.19171811977360376,"16":0.07846041041047748,"17":0.05326425222913824,"18":-0.13001285160614798,"19":-0.06320223317418994,"20":0.1145947313745556,"21":-0.17852307070633758,"22":0.13972996167804447,"23":-0.1494656048631139,"24":-0.070294531131871,"25":0.04154601053793783,"26":-0.10427246652670834,"27":-0.1314356483170692,"28":0.06276751669674281,"29":0.16275990770477372,"30":-0.3161284186766795,"31":0.0707375736833837,"32":0.13533456794550083,"33":-0.17235504465647697,"34":-0.09288313077401593,"35":0.04697501225335408,"36":-0.06360779291544014,"37":-0.21599740557621175,"38":0.11667063704876825,"39":-0.14532381069937297,"40":0.021629540404180678,"41":-0.06903527786395634,"42":-0.2446971610969399,"43":0.008152630706770782,"44":-0.025158361238006736,"45":-0.14433056642821368,"46":-0.04945347398885957,"47":0.02383792353383671,"48":-0.052343003902284684,"49":0.14465820043439234,"50":-0.2318899675924221,"51":-0.09142033001844908,"52":-0.05172106617061848,"53":0.17332430337882437,"54":-0.1141498224645209,"55":-0.1701785878980686,"56":0.035857541902214754,"57":0.03202151872941302,"58":0.1229741345277604}},{"sx":1,"sy":1,"depth":59,"w":{"0":-0.1279608964129663,"1":0.18538286905570134,"2":-0.09709313970368992,"3":-0.09647179473112168,"4":-0.09522730600192501,"5":0.2096473102888616,"6":0.08026227195903875,"7":-0.02942698915803549,"8":-0.13561875166472193,"9":-0.2541094936871964,"10":-0.025169661476480924,"11":0.16947468179563716,"12":-0.09937484264813434,"13":-0.0006011810239425256,"14":-0.248235553397716,"15":-0.06848663185217313,"16":-0.2994551095388351,"17":-0.10208510462679322,"18":-0.034813300231938855,"19":0.15749767912889817,"20":0.1488472787138411,"21":-0.22042017110610918,"22":-0.1070064520164136,"23":-0.05314099912771439,"24":-0.0955815681781875,"25":0.010814389811810899,"26":0.12041844414224086,"27":0.11223617508433005,"28":-0.09495149730534687,"29":0.1819776998439527,"30":-0.09547490360194008,"31":-0.06864772451198896,"32":-0.02853076422440305,"33":-0.0927438306740059,"34":0.044706351364024156,"35":0.01754845870249457,"36":0.10913517686427714,"37":0.24413263264293014,"38":0.0014866342821812876,"39":-0.13065904872349135,"40":0.05153218693774618,"41":-0.28886525630897464,"42":-0.05692647456119617,"43":-0.06526958625602584,"44":0.15787350067685968,"45":0.05507794464033624,"46":0.06680817461824592,"47":0.04099539562021842,"48":0.1709277952083319,"49":0.007901351128075136,"50":0.0698003961874583,"51":0.014511244539008754,"52":0.07644434961605807,"53":-0.022046838823294116,"54":-0.010714914848904291,"55":-0.0750712799310642,"56":0.10767711947945265,"57":0.008244149393327058,"58":-0.020475670924938395}},{"sx":1,"sy":1,"depth":59,"w":{"0":0.22821677822385567,"1":-0.12477628751653315,"2":-0.12372438159205638,"3":-0.16378846541487702,"4":0.2395971244752915,"5":0.1640090067218786,"6":-0.26837845471831445,"7":0.11084722487524203,"8":-0.20900040814128507,"9":0.10790975490454155,"10":-0.18046985453751863,"11":0.007268661421207481,"12":0.26252421481006033,"13":0.10680912748320068,"14":-0.028784503185378042,"15":-0.05447564398830089,"16":-0.04958021556692161,"17":0.012182406474258018,"18":0.1866866229805021,"19":-0.1349237750762174,"20":0.16294909302621388,"21":0.13159729953247967,"22":-0.12193682697665498,"23":0.04402178092882072,"24":0.20658898218499452,"25":-0.08045316988528882,"26":0.1315303944801088,"27":-0.26208483468315796,"28":0.19354187827686506,"29":-0.1194121683367517,"30":-0.06335872988658169,"31":0.027890145762864048,"32":0.17016797224702865,"33":-0.07418738924335722,"34":0.22432510664392424,"35":0.14893406834079934,"36":-0.08950065577176151,"37":0.18355945009604746,"38":-0.05332324112214816,"39":0.23575838823635012,"40":0.06193125221114698,"41":-0.01907698530333874,"42":-0.11701219949767466,"43":0.10114110648460829,"44":0.10009432985521355,"45":-0.11983109844656677,"46":0.1078103977598033,"47":0.024676459667361445,"48":0.0010365802921089037,"49":-0.16185044472656204,"50":-0.020557096733598745,"51":0.06891246304508754,"52":-0.012198250038832549,"53":0.19420753652998665,"54":0.026977632353282537,"55":0.10070958280032641,"56":0.14208670537700513,"57":0.08984652396250753,"58":0.09197934005798516}},{"sx":1,"sy":1,"depth":59,"w":{"0":-0.1253410470591767,"1":0.16185760204150093,"2":-0.07893232796759016,"3":-0.17080059513230514,"4":0.2005343538603691,"5":-0.016247396808098176,"6":-0.02050618209273872,"7":0.3659563196589883,"8":0.19196256445629953,"9":-0.11190891794338452,"10":0.07788011878579548,"11":-0.001480637020467047,"12":0.07814165220176976,"13":0.2121361013214371,"14":-0.15841870303245698,"15":-0.18514004670856068,"16":0.018284674625153447,"17":-0.005413770064231318,"18":-0.12521469218403794,"19":0.05860647388021559,"20":-0.0395396106301959,"21":-0.22636218121970736,"22":0.035383622192557675,"23":0.08955042572183874,"24":-0.25778710363151014,"25":-0.1156707442054392,"26":-0.040913451357361255,"27":-0.20571877122385565,"28":-0.01874852606790277,"29":-0.07704885152933859,"30":-0.023581286401926735,"31":-0.12314022890161064,"32":-0.0782656871134717,"33":-0.11281885044912002,"34":-0.10450879514230178,"35":-0.048737698572666174,"36":-0.10934660494622733,"37":-0.01701669214507846,"38":-0.03837964317077879,"39":-0.11318659689059979,"40":-0.03266827976428411,"41":0.1511617878538282,"42":-0.11483795865702955,"43":0.21391242526922347,"44":0.2433283416839377,"45":-0.24459917696352712,"46":-0.2146241152909227,"47":-0.000547950078806961,"48":0.07306769143227228,"49":0.01665832702601258,"50":0.13484636633313102,"51":-0.11582446539450444,"52":-0.01950830303078605,"53":0.02488289860077655,"54":0.10809739841043747,"55":0.0012087520630196084,"56":0.08360462344113456,"57":0.21591538318926262,"58":-0.10439688359241969}},{"sx":1,"sy":1,"depth":59,"w":{"0":-0.10968737445766386,"1":0.025324634240836277,"2":-0.06579856672436134,"3":-0.07587362879827683,"4":0.0680932454404356,"5":-0.12449103132497429,"6":0.2421634982140194,"7":-0.055773611788907426,"8":0.2474048672569939,"9":0.06136784168663204,"10":-0.18239802729273805,"11":0.16352703467607763,"12":0.0794730930463904,"13":0.001577278130045248,"14":-0.11224761564268966,"15":-0.06971021321412896,"16":0.0993419477863048,"17":-0.09243259116367114,"18":-0.16096022234701823,"19":-0.09624609289554248,"20":0.20102940015593113,"21":0.07842605211982148,"22":-0.11941612506581133,"23":0.19579686078936742,"24":-0.1306998551185767,"25":-0.21370337583838955,"26":-0.009632314570849747,"27":-0.18701684444135533,"28":-0.1409025477056611,"29":-0.16177062825343508,"30":-0.048389147268505864,"31":0.007589184603768018,"32":-0.07255435597747668,"33":0.3096450411908161,"34":-0.06185561680525948,"35":-0.1174358638214907,"36":-0.035702612909135144,"37":-0.07812041486247029,"38":-0.12295381191731679,"39":-0.30125795182603093,"40":-0.1788262892844054,"41":0.0592002496904805,"42":0.03756688637303795,"43":0.038004693094968185,"44":0.008896200655294834,"45":-0.15787876197005496,"46":0.014061469569078779,"47":0.053737379145206196,"48":-0.11406730326628124,"49":-0.12551608066371941,"50":0.21277733642760044,"51":-0.1741005182967338,"52":0.07538789469750273,"53":-0.08777891904452047,"54":-0.03916985387819283,"55":0.014274375414078385,"56":0.016277324601237684,"57":-0.03009154545899306,"58":-0.034118204500067834}},{"sx":1,"sy":1,"depth":59,"w":{"0":-0.20829072747702557,"1":-0.08715247717767685,"2":-0.13584634195514342,"3":-0.07836879277956513,"4":0.12466400740586919,"5":-0.05617700598425469,"6":-0.024259925492548136,"7":0.009312660731503358,"8":-0.07406957292935484,"9":-0.03947387291092139,"10":-0.04821405892955797,"11":0.012795123930052698,"12":-0.049432322760241745,"13":0.04742919341509643,"14":0.002893590663366164,"15":-0.10717221341149587,"16":0.04097535206323362,"17":-0.1301522188110515,"18":0.06477884025616625,"19":0.04084817591773515,"20":-0.034334016643326706,"21":-0.10324279369430307,"22":-0.09091197354184943,"23":-0.058328955599703435,"24":0.19514883539575162,"25":0.11554691569869394,"26":-0.07094975608274487,"27":0.23220379672560643,"28":0.004368685014962226,"29":0.20958542665278873,"30":-0.09277875774150443,"31":0.00512419322863123,"32":-0.1038533773349257,"33":0.09730049951327006,"34":0.05164230945478381,"35":-0.09801363478125003,"36":0.0770939740537908,"37":0.02903306374323264,"38":-0.05526129857727188,"39":-0.15758241984774182,"40":-0.105136727547354,"41":0.19929953439778508,"42":0.13379329240419185,"43":0.11285550841269999,"44":-0.05660121417860983,"45":-0.021544183141846845,"46":-0.22752898765460414,"47":0.07391876606891266,"48":-0.06347226855818525,"49":-0.055169685246616765,"50":-0.10119731893579753,"51":-0.0408450316714338,"52":-0.015120986153816037,"53":-0.011127917939505287,"54":0.01984783849764766,"55":0.04958422229811772,"56":-0.09698013856999879,"57":0.001525952684705776,"58":0.12384954186216143}},{"sx":1,"sy":1,"depth":59,"w":{"0":-0.009111437213217811,"1":0.10001142986497706,"2":-0.12263572163444382,"3":-0.03240484204896873,"4":0.15935607105816824,"5":0.049406757201070406,"6":-0.04748164563820635,"7":0.1683213077536402,"8":-0.16856191111591232,"9":0.2253329684133419,"10":-0.05943736943764804,"11":-0.14272894815732123,"12":-0.024186147487972032,"13":-0.05230267636769996,"14":0.11428180556782429,"15":-0.06806330472983924,"16":0.13300125199579582,"17":0.014692868231726303,"18":0.14244575823724706,"19":0.009444210086133494,"20":0.07809457325752459,"21":0.022274721819177053,"22":-0.04152649601874296,"23":-0.12472595277983535,"24":0.09464063852444436,"25":0.10990912142852934,"26":0.03986710933594665,"27":0.017084059818561502,"28":-0.08652421557397616,"29":-0.09836313289988935,"30":-0.03831737666782026,"31":0.09556260124484574,"32":-0.04616345856156921,"33":-0.014901536753186402,"34":0.1589234627937338,"35":-0.0483799000207053,"36":0.0727351750911484,"37":-0.0985197111946367,"38":-0.1893289131452396,"39":0.019969363600719166,"40":0.043902528764466715,"41":-0.17637617295853977,"42":-0.018139241173119807,"43":0.08528191756122344,"44":-0.1808703525747198,"45":0.159098358075917,"46":0.09513833985308989,"47":-0.1860482531555162,"48":-0.036237114922757684,"49":-0.062129198615238544,"50":0.04430622537993391,"51":0.0540584347844119,"52":0.13920345765737152,"53":-0.06819005248581096,"54":-0.10729137658356912,"55":0.015270012371190265,"56":0.03292294272268044,"57":0.04907241447195459,"58":-0.20125828172576588}},{"sx":1,"sy":1,"depth":59,"w":{"0":-0.2292887699095432,"1":-0.1833842775475227,"2":-0.04192938435403747,"3":0.013274332056240531,"4":-0.018658912075107035,"5":-0.14067896247492373,"6":0.13877404282662148,"7":0.10013088384326126,"8":-0.038718514796896183,"9":0.07041846171061658,"10":-0.09639105355415356,"11":0.021428488629637622,"12":0.14553169827896564,"13":0.011657021538175827,"14":-0.13436767022040988,"15":-0.1776061629550812,"16":-0.06205760048086617,"17":0.2206030536000213,"18":-0.20826532167152162,"19":0.10205653807227917,"20":-0.09651938445788961,"21":-0.1684745671508152,"22":-0.18193730677970377,"23":0.058753964652862804,"24":0.11530547853170371,"25":-0.15731452623678727,"26":0.07813750140276007,"27":0.08485135867412809,"28":0.17403665331935597,"29":-0.13655038676090603,"30":-0.2333189883884913,"31":-0.04893591679794376,"32":-0.005054038039624895,"33":-0.0024846708473644477,"34":0.113441860993525,"35":-0.10794537988494507,"36":0.06244859506758767,"37":-0.12718882445044297,"38":-0.23940734742981123,"39":-0.09316523514992917,"40":-0.035785756568070155,"41":-0.3224515415437476,"42":-0.07424372796183944,"43":-0.14585584454843623,"44":-0.2364532726523771,"45":-0.10406980322293692,"46":-0.00539481283661814,"47":0.08779264632186089,"48":-0.19449347285717403,"49":0.048162985300640226,"50":0.10243010699418217,"51":0.24093063482140786,"52":-0.14866225295234822,"53":0.22436845703568567,"54":0.14234330408646725,"55":0.01947789748717662,"56":0.13061556304713018,"57":-0.06943966706422137,"58":0.06150982194694807}},{"sx":1,"sy":1,"depth":59,"w":{"0":-0.023830718650952265,"1":0.0465333077589195,"2":0.004325737848903205,"3":0.11535814730130481,"4":0.04735650544686021,"5":0.08623123618606657,"6":0.09773550758055484,"7":0.091322001515278,"8":0.09855780726361887,"9":0.22473050597442054,"10":0.23437603327224668,"11":-0.06086678501240156,"12":0.012819803596529436,"13":-0.11648713745626883,"14":-0.17550387927072947,"15":0.08398330650083417,"16":-0.1261787759498635,"17":-0.1829930861734319,"18":-0.022078484540556022,"19":-0.04395057749955464,"20":0.15263583605686748,"21":0.0838704896295231,"22":0.3626104390016224,"23":-0.07493089618128104,"24":-0.026850841925014426,"25":-0.11305840933473493,"26":-0.20945172902342837,"27":-0.03541873446562586,"28":0.06666976026520786,"29":-0.0868348513780776,"30":0.17840893312672698,"31":0.13675559119391026,"32":0.010411328128418324,"33":-0.1566704990989859,"34":0.11729966376408882,"35":-0.17912850879012543,"36":-0.16884606724806903,"37":-0.039100398602325205,"38":0.07079991076922343,"39":0.15210071672668338,"40":0.05789484546339766,"41":-0.05114444406800355,"42":-0.006805932451255011,"43":0.0008501225852714457,"44":-0.012923960922970225,"45":0.0547914765276147,"46":-0.018200868488799034,"47":0.12035403683206056,"48":-0.01046033241162014,"49":-0.08769120469372894,"50":0.05303524989317801,"51":0.14121840657424484,"52":0.033403329238407595,"53":-0.03259790861177195,"54":-0.001091735978808773,"55":-0.08379855722931372,"56":-0.20722110863689353,"57":-0.12663328365917972,"58":0.032203989076219894}},{"sx":1,"sy":1,"depth":59,"w":{"0":-0.058145073099738105,"1":0.039556451278210905,"2":0.03604434839768046,"3":-0.24878916783657687,"4":-0.092065387961552,"5":0.1725737631072339,"6":0.20482567504589294,"7":0.0397779868186733,"8":-0.21734840372719436,"9":-0.0483954441971636,"10":0.1809526518420288,"11":0.08993998309021374,"12":-0.01703500979562724,"13":0.03759696263273813,"14":-0.10884192348383476,"15":-0.0445103634317939,"16":-0.004239718545242086,"17":-0.1524393776744421,"18":0.24805318273393928,"19":0.01344024338515937,"20":0.1356716287997623,"21":-0.009920674222768119,"22":-0.11879951324132489,"23":-0.08486931163379448,"24":0.0819077544978834,"25":0.2679796789432078,"26":0.0830238087421514,"27":0.19840967034991683,"28":-0.11246286785699582,"29":0.003154449758006846,"30":-0.08900871286571253,"31":-0.02816417376786677,"32":-0.11889854157771863,"33":-0.03845411677141781,"34":0.3370277952553744,"35":-0.10287076596274222,"36":0.009725722546162207,"37":-0.042260232115601384,"38":0.027196999442933727,"39":-0.10350603092420879,"40":-0.09983013018657685,"41":0.3036354331580527,"42":-0.1645337220664877,"43":-0.000018351684943327907,"44":0.05894324691606166,"45":-0.0013560777005263913,"46":0.02165240140202938,"47":-0.001130083228936956,"48":0.10528540610811973,"49":0.13837856904036006,"50":-0.08151471617771555,"51":-0.013235301200397011,"52":0.007320097047426019,"53":0.012352832704807238,"54":-0.04472327914149155,"55":-0.0359466349609535,"56":-0.25658900490422215,"57":-0.054827110157297444,"58":-0.027289502145142416}}],"biases":{"sx":1,"sy":1,"depth":50,"w":{"0":0.10114013497245777,"1":0.09452042377583247,"2":0.10095640223039039,"3":0.10027067238152848,"4":0.10004255679158698,"5":0.10014177917261811,"6":0.1103038664927525,"7":0.09755876145374434,"8":0.09530177351203173,"9":0.08942155007867486,"10":0.09974163463652982,"11":0.09977709642806651,"12":0.10720324491910092,"13":0.10497275287928366,"14":0.1005232034803758,"15":0.09490132359964709,"16":0.09786415752208254,"17":0.09612147107753878,"18":0.09398575353322595,"19":0.10512283335525091,"20":0.09947128627447599,"21":0.09737954017706286,"22":0.09984260391862465,"23":0.09955515080953077,"24":0.10334978318700908,"25":0.10125001317995785,"26":0.10613247523223353,"27":0.09639745937251118,"28":0.0990247084093423,"29":0.10021346650844923,"30":0.09946708782660338,"31":0.10053234202223132,"32":0.09488715230248858,"33":0.10239264430520424,"34":0.09984485322189104,"35":0.10073312002523531,"36":0.09984059504641155,"37":0.09912811793746712,"38":0.11164498333037957,"39":0.10237650803090734,"40":0.10174333072817579,"41":0.10025440238771886,"42":0.10566492063223604,"43":0.095793335406904,"44":0.09799685409811475,"45":0.09663457406618466,"46":0.09943328292809564,"47":0.09910477331468313,"48":0.0987434712753952,"49":0.09562964704038715}}},{"out_depth":50,"out_sx":1,"out_sy":1,"layer_type":"relu"},{"out_depth":50,"out_sx":1,"out_sy":1,"layer_type":"fc","num_inputs":50,"l1_decay_mul":0,"l2_decay_mul":1,"filters":[{"sx":1,"sy":1,"depth":50,"w":{"0":-0.18037975018280075,"1":-0.09435191605218965,"2":-0.22589931841423075,"3":0.045749196125847866,"4":0.04431022643515869,"5":-0.18798136754027123,"6":-0.06359700903079658,"7":0.08615174880519777,"8":-0.20109041205913353,"9":0.09991172068057434,"10":-0.03953839421186791,"11":-0.023923831930455747,"12":0.22246203584152285,"13":-0.16323086286296254,"14":0.056024153870168174,"15":0.058766412781440576,"16":0.040878172731264255,"17":-0.014132476396080633,"18":-0.03827929827784723,"19":-0.0004880887138437266,"20":-0.11131161587943532,"21":0.02533370435474088,"22":0.05562328948542849,"23":-0.014911874571101132,"24":0.02365768307454629,"25":0.13456663536767124,"26":0.08105370484070196,"27":0.057165440280090456,"28":0.11125496320869036,"29":0.1143942967236123,"30":0.18000502263640686,"31":-0.1942480633090153,"32":-0.05849094039585083,"33":-0.15436723158486773,"34":-0.1999472290554094,"35":0.148876504843335,"36":-0.2855595354763403,"37":0.034116180655614455,"38":0.23188867205115435,"39":-0.08184040160763663,"40":0.07474595019115304,"41":-0.1398246166818406,"42":-0.07222920959931343,"43":-0.27281798786145695,"44":0.21397870660572818,"45":-0.11208103810620405,"46":0.02523564673616719,"47":-0.11407224473689932,"48":0.10647459152026795,"49":0.07860603577435356}},{"sx":1,"sy":1,"depth":50,"w":{"0":-0.014951996557256795,"1":0.20870201387928203,"2":0.27136291922681083,"3":0.02415301514453325,"4":-0.02256079841152077,"5":0.10403271784629718,"6":-0.08331883321792698,"7":-0.2029504568846824,"8":0.07989332265672963,"9":-0.24358354955085465,"10":0.1100268829396348,"11":-0.47033267289820696,"12":0.06987149998935571,"13":-0.004593038663036716,"14":0.16948970842728306,"15":-0.1382503748917013,"16":0.04509853080106022,"17":-0.07159973706805181,"18":0.1405734053141196,"19":0.24747872704032522,"20":-0.09995834107779858,"21":0.07275316079192566,"22":-0.05135050128520686,"23":0.13846758226758363,"24":0.0890745225434456,"25":0.015119284635838344,"26":-0.15875011088207322,"27":-0.042932308461226025,"28":-0.03993381536846584,"29":0.12756656153352142,"30":0.43430900404850226,"31":0.4173314698028629,"32":-0.06194281084395107,"33":-0.1514833990392993,"34":-0.20507136310336815,"35":-0.08308582252062092,"36":0.052993438215405905,"37":0.12388399978898723,"38":-0.4451994407385097,"39":0.11921349273574595,"40":0.16609273012981388,"41":-0.0050401171802125465,"42":0.005497901212618321,"43":0.1797011761737305,"44":0.04809858248800906,"45":0.002878555413964371,"46":0.08039949829707185,"47":-0.03547522621438055,"48":0.11867152396045526,"49":-0.16213492611404634}},{"sx":1,"sy":1,"depth":50,"w":{"0":0.14087449962310267,"1":0.11428140038397522,"2":-0.042579282943721423,"3":-0.036530465211695784,"4":-0.08015629902299105,"5":0.17009262556258986,"6":0.25397924839253017,"7":0.14830922760173132,"8":0.16899644425353963,"9":0.0725481587949607,"10":0.0474615527259615,"11":-0.14058852620875145,"12":0.3773458936105632,"13":-0.16122824336921723,"14":-0.2860947024894169,"15":-0.009132023551471177,"16":0.12056945965523985,"17":0.07987291902613658,"18":-0.14612445078970374,"19":-0.019897402195323207,"20":-0.013535118411836276,"21":-0.009813164784044736,"22":-0.09319209942333369,"23":0.280264499522241,"24":0.07112945002065413,"25":-0.21024044137727185,"26":0.18508641580739468,"27":0.07565080986885128,"28":0.06405894235388515,"29":0.10362518589505185,"30":0.14143827020337466,"31":-0.09122473334413744,"32":-0.07693284094435653,"33":-0.22159172477589026,"34":0.17210142344138404,"35":-0.03632531682693495,"36":0.028458037154184317,"37":-0.21430124726334643,"38":-0.12576574389611742,"39":0.28280482157831366,"40":-0.022966202176379784,"41":0.15851304908193106,"42":0.027767893530849755,"43":0.05054653299725588,"44":-0.21164537061660724,"45":-0.10275944044550674,"46":-0.007850668991731221,"47":0.12446101041760262,"48":-0.08771940109797055,"49":-0.02388522534164168}},{"sx":1,"sy":1,"depth":50,"w":{"0":-0.36446159044730914,"1":-0.020575355858293235,"2":-0.283318173349523,"3":-0.06899490162397137,"4":0.1592735110037071,"5":0.011113226324867578,"6":-0.21835577404639947,"7":-0.35039491814916984,"8":0.16935105510153972,"9":0.11238668466561841,"10":0.19229953834577726,"11":-0.18806309186668718,"12":0.03147915895987369,"13":0.1461577732837109,"14":0.2287503923900875,"15":-0.09015460661477478,"16":0.12716225203972492,"17":0.23814887505385554,"18":-0.29699920725915135,"19":-0.061193954748489904,"20":0.04851532020074185,"21":-0.019401178493199316,"22":0.06756248026453548,"23":-0.02469769854366406,"24":0.15465666299063874,"25":-0.07879420608700452,"26":0.08773939261514514,"27":-0.01079573721707479,"28":-0.12943935091830117,"29":0.005648045703293468,"30":-0.27695066845420613,"31":0.011599707389205384,"32":0.0056968578958830045,"33":-0.1388519964015985,"34":0.04386641650148304,"35":0.2868666669635185,"36":-0.01614493858477651,"37":0.058909002859619586,"38":-0.15009705097885365,"39":-0.017725532708174483,"40":0.09309305898060842,"41":0.12830070990141437,"42":-0.08940287154801178,"43":-0.07097886253314714,"44":0.17807448449267183,"45":0.12893130551841459,"46":0.05163959295782582,"47":0.08730096665814943,"48":-0.15166578474701148,"49":0.15313164767514423}},{"sx":1,"sy":1,"depth":50,"w":{"0":0.15441551869391926,"1":-0.006569359589217099,"2":-0.10340029492450648,"3":0.021953677612990555,"4":0.0944705596435843,"5":0.18364384572055795,"6":-0.04828340179083109,"7":-0.00823281331249572,"8":0.06757798230216938,"9":-0.14274312094189268,"10":-0.025336689791436637,"11":0.17007692388994516,"12":-0.06698904506445331,"13":-0.14382750736079505,"14":0.07231907109730613,"15":0.3250302422838068,"16":0.02660624513355029,"17":0.1001336863352221,"18":-0.11593533848808295,"19":-0.17274190199789163,"20":0.0830507277640155,"21":-0.10209922388177137,"22":-0.1487164216646476,"23":0.01716468032124817,"24":0.09181677735090707,"25":-0.11771464003071996,"26":-0.05004384052862322,"27":-0.03270339081456162,"28":-0.11435987495437475,"29":-0.016083745936857036,"30":0.013907939144811605,"31":0.15517743054625113,"32":0.09218705536973416,"33":0.09543831467355303,"34":0.12254330526137006,"35":0.07102276987057249,"36":0.05514871790527734,"37":0.023817276606830907,"38":0.1321529938481921,"39":-0.22843909771940862,"40":0.1535464835882793,"41":-0.15123638888022525,"42":0.09122158833405068,"43":0.12617289033330092,"44":0.10420772526530535,"45":-0.03280441661321329,"46":0.07926818890378208,"47":0.23035759336960382,"48":-0.17781496130819574,"49":0.2009532330903278}},{"sx":1,"sy":1,"depth":50,"w":{"0":0.06278714533162155,"1":0.0053788070843413345,"2":-0.11800900849966266,"3":-0.09043246375698058,"4":0.07195469357345895,"5":0.1177946285629601,"6":0.02058937148340026,"7":-0.03758129101478906,"8":0.3513995657115447,"9":-0.13878538103105156,"10":0.06746264432158572,"11":-0.16731510815599948,"12":0.15556593643607458,"13":0.03986076208645092,"14":0.02676421722221875,"15":0.022182184015639733,"16":0.03657230106970119,"17":0.1860862830398285,"18":-0.17621938577303328,"19":-0.12550691336377998,"20":0.04863235111027113,"21":0.09719885595120151,"22":-0.17641111154663058,"23":-0.09918519549653111,"24":-0.019330150500386296,"25":-0.08385589643559452,"26":-0.048620855250400295,"27":0.038837603717944806,"28":-0.04962378653406158,"29":0.06554778120273676,"30":0.08306747263133701,"31":-0.11067364863359999,"32":0.11254372714875525,"33":0.25765497478657734,"34":-0.16785395767035644,"35":-0.02083935830997281,"36":0.11020658857782217,"37":-0.2223394184436678,"38":-0.2002162575128631,"39":-0.004338034484990794,"40":0.10571763319921461,"41":0.18136466304695611,"42":-0.2819634550318342,"43":-0.012138704681814326,"44":0.16591087092177478,"45":0.04841972435708726,"46":0.05834436461882653,"47":0.1114480057313847,"48":0.16346615403518527,"49":-0.060814456705008346}},{"sx":1,"sy":1,"depth":50,"w":{"0":-0.03078842977611769,"1":-0.014784198432275386,"2":0.10976140909792274,"3":0.0787960287940787,"4":-0.003689478643761415,"5":-0.0036841778211392515,"6":0.07987433791617313,"7":0.0458293799386349,"8":0.003902799329891204,"9":-0.13468932404181808,"10":-0.13767726382943526,"11":-0.07914160133768586,"12":-0.10333401620944586,"13":-0.12808285736146421,"14":0.11272291964106956,"15":-0.06941999147106136,"16":0.22406396785695673,"17":0.16957051285039484,"18":-0.19484456288129173,"19":-0.10817519768898586,"20":0.08866797297387342,"21":0.13503844093506462,"22":0.034545440667742476,"23":0.16540534475843427,"24":-0.029031421045455114,"25":-0.11094014181362757,"26":-0.2747756190404626,"27":0.14625209583997353,"28":-0.09288878319820168,"29":0.3170239560541556,"30":-0.009916715133753197,"31":-0.08651731520266989,"32":-0.18790456572169392,"33":0.08021328708159828,"34":-0.0046624091425515385,"35":-0.07553650004548743,"36":0.027439919370241657,"37":-0.0020303616001012955,"38":-0.12074517611457236,"39":-0.3147891876793567,"40":-0.23184247924598597,"41":-0.06695505082808394,"42":-0.15148193731031237,"43":-0.1740399049298067,"44":0.021553698524461283,"45":0.06729847993110202,"46":0.26556149909252175,"47":-0.05369689519467814,"48":-0.07572943064504106,"49":0.10666868326581508}},{"sx":1,"sy":1,"depth":50,"w":{"0":-0.13104786437927607,"1":-0.05637179242944186,"2":0.06505582382313804,"3":-0.07271060989162631,"4":-0.141901388302174,"5":-0.12137530950502222,"6":-0.1648081893419063,"7":-0.1052483316990752,"8":0.06618477078095117,"9":0.05309717563675469,"10":-0.050514375326408914,"11":-0.0628300422618633,"12":-0.02034184910249806,"13":-0.12928491645547976,"14":-0.1677687035852539,"15":-0.14433698591196156,"16":-0.01254429577490145,"17":0.20244120408945132,"18":-0.025908303296061353,"19":-0.19752608746992817,"20":0.07412304228748554,"21":-0.17866918157771902,"22":-0.11210264628393407,"23":0.06042422691402152,"24":0.1668227246246073,"25":0.18269660702029827,"26":0.20341993196867275,"27":0.13533828866901168,"28":-0.1446332250765337,"29":0.07385236874452747,"30":-0.0014690420692421117,"31":-0.041498706835732424,"32":-0.005095075253689974,"33":-0.1552236270450035,"34":-0.07196060378980661,"35":-0.10248171688922278,"36":0.26637557305122184,"37":-0.025488881599583565,"38":-0.17443910729406112,"39":0.1493291394716863,"40":0.21952970080187723,"41":-0.08068087275369742,"42":-0.24652112190109193,"43":0.040421535290542286,"44":-0.06560360160491113,"45":-0.03796357961555523,"46":0.07143939914886438,"47":0.07958672821500407,"48":-0.07426687896327282,"49":-0.24352045265501104}},{"sx":1,"sy":1,"depth":50,"w":{"0":0.0837770004758119,"1":0.032727914757240885,"2":0.13180820449859532,"3":0.2458795423470002,"4":0.031155305020835647,"5":-0.2214305369060448,"6":0.29509215565943964,"7":0.06836019737963703,"8":-0.01922665824174517,"9":-0.2019210303713622,"10":0.26808408179991555,"11":0.22155771965548224,"12":0.05040977469186361,"13":0.13774280613823542,"14":-0.09257921301963407,"15":0.1432091500514145,"16":0.08358496744656009,"17":-0.2599823972555987,"18":-0.13905003382188807,"19":-0.010037892531886916,"20":0.1257267757959447,"21":0.03692795458659482,"22":0.0384774675746851,"23":0.07491206573111159,"24":0.010430675644429139,"25":-0.06950646447240322,"26":0.2166319859057465,"27":-0.08575324104420586,"28":0.06742054127348533,"29":0.12098535754163833,"30":-0.17753137882879247,"31":-0.002633612358764402,"32":-0.03538572863247803,"33":0.16233101249874157,"34":-0.19124416451090107,"35":0.056643447863514655,"36":0.10013324895805933,"37":0.09499463831463399,"38":0.056793570724088346,"39":-0.14366222725442238,"40":0.0025112643723192067,"41":-0.06535924132010179,"42":-0.03980082960090277,"43":-0.16903607255529204,"44":-0.1396526709945802,"45":-0.041332814008584996,"46":-0.18877774610590697,"47":-0.127370310531391,"48":0.13776443734895472,"49":0.2362882560488867}},{"sx":1,"sy":1,"depth":50,"w":{"0":-0.17810736335367539,"1":-0.017693115055142084,"2":0.06962892337162536,"3":0.4926778260776432,"4":-0.018982560464424987,"5":0.1036183465274811,"6":0.07726631454755156,"7":0.011195557451671606,"8":-0.16308953489755412,"9":0.1279002485727951,"10":-0.16654932259772276,"11":-0.27518730239176026,"12":0.014002772808879602,"13":-0.11284871172102658,"14":0.12587946303643466,"15":-0.16666427874052747,"16":-0.005800118776014908,"17":0.1220426933597046,"18":0.05915657384755535,"19":-0.1731438694907695,"20":0.1735630378170895,"21":-0.055597021312171126,"22":0.1626429147219697,"23":-0.08924220353935843,"24":-0.030430058230601065,"25":-0.2366854616006195,"26":0.006794403111999513,"27":0.19929796514315826,"28":0.13770270120864964,"29":-0.15333607490549,"30":0.07823008526907951,"31":0.18072892550254896,"32":0.21325438557500453,"33":-0.19426558042739028,"34":-0.00394773975332997,"35":-0.03009661338358939,"36":-0.10527169041580027,"37":-0.05874643263667989,"38":0.008077760473905213,"39":-0.036201018636254155,"40":-0.005733693360643803,"41":0.04080917889966777,"42":-0.043984001643039373,"43":0.1178450594810203,"44":0.3060134300261455,"45":-0.15444892979947952,"46":-0.020702966395283715,"47":0.14527662191537585,"48":-0.029687480875450332,"49":-0.018124131180238083}},{"sx":1,"sy":1,"depth":50,"w":{"0":0.06708298447066113,"1":-0.034012222539835345,"2":-0.20113942740147975,"3":0.16744028321164223,"4":0.26991296029415335,"5":-0.0404935692858204,"6":-0.13891538711106005,"7":0.23641755880916138,"8":-0.2435087295272231,"9":0.0587488440117481,"10":-0.09186859570405076,"11":-0.016562942637733516,"12":0.3402795108385677,"13":0.0027513660326425014,"14":-0.05837205590786211,"15":-0.014814615509033544,"16":-0.17041442246108393,"17":-0.013343218297983654,"18":0.13099011286591097,"19":0.05573194004724156,"20":0.05934379347009072,"21":-0.044465442166050036,"22":-0.016314700211954265,"23":-0.019807990616118605,"24":-0.10791345592604241,"25":-0.041148523932098495,"26":-0.06543332725635043,"27":-0.14719409928207866,"28":0.044540633064250455,"29":0.011909277595802214,"30":-0.1694034745651588,"31":0.016892066194065528,"32":0.034918988447149864,"33":0.3657308910822289,"34":0.01127778470664137,"35":0.15189195129709698,"36":0.003975730234103935,"37":-0.20784733903948718,"38":-0.14899603698206035,"39":-0.1721479168877659,"40":-0.08482538173295986,"41":0.14542562528115596,"42":-0.0062533492258923,"43":-0.26319791730988024,"44":0.0642361655568928,"45":0.2649924518256288,"46":-0.021897140453912677,"47":0.11775627123035477,"48":0.10709440185780988,"49":-0.037372094354467145}},{"sx":1,"sy":1,"depth":50,"w":{"0":0.06964112353926849,"1":0.12744657653272673,"2":0.07099105694466762,"3":0.1443612723048136,"4":-0.319819603645882,"5":0.24527687544593568,"6":-0.10872081091059857,"7":-0.05222550097645528,"8":-0.11864046502640822,"9":0.17360108676811734,"10":0.04851871068197627,"11":-0.08959546435990293,"12":-0.06686879129532913,"13":-0.017970573134458667,"14":0.1418945077452438,"15":-0.018512986353549435,"16":-0.04706214067723575,"17":0.16887696449557688,"18":-0.04833172558080525,"19":-0.03120718040294022,"20":0.021437196298106618,"21":-0.09049346039107935,"22":0.10323652117995062,"23":-0.023947252430139013,"24":-0.03876270507300784,"25":0.01969982660828663,"26":-0.13502624717512735,"27":0.30163631203720886,"28":0.05863032349440185,"29":0.07046687908891491,"30":0.20077764535960405,"31":-0.03186356555350886,"32":0.07042714457148617,"33":0.1638865354679611,"34":-0.138696035151469,"35":-0.1318213256667345,"36":0.19787000105529023,"37":0.00639318520794215,"38":0.10585217846715361,"39":-0.1484604338407934,"40":0.12925196509000103,"41":-0.13035350409047647,"42":0.38558159841757256,"43":0.28344148102628725,"44":-0.03560431146966791,"45":0.07011461965060203,"46":-0.10652396488673334,"47":0.0066695488152869785,"48":0.04990545822369052,"49":-0.032948810962062314}},{"sx":1,"sy":1,"depth":50,"w":{"0":-0.10795402705852726,"1":0.13387499677942288,"2":-0.30267328766628265,"3":0.15824014317156282,"4":0.01586601586659805,"5":0.13013934701207835,"6":-0.13691929555353188,"7":0.10153177366132418,"8":-0.016960405521362958,"9":0.05972796060568479,"10":-0.13103125128200682,"11":0.044368357981452965,"12":-0.3225306138304876,"13":-0.14674548227750892,"14":0.1795260546016243,"15":-0.16352337536817504,"16":0.13045556786660262,"17":0.07182338780650796,"18":0.3164264243992444,"19":0.2016479576463194,"20":0.06563247343740382,"21":-0.2629044174068913,"22":0.18031344680662703,"23":-0.10587969834764144,"24":0.014352961219306331,"25":-0.023934630370887718,"26":0.06319279283392108,"27":0.04834322008579398,"28":0.06938132296816597,"29":0.25937604642291207,"30":0.1485390987490049,"31":0.11993249113438584,"32":-0.03921037739718076,"33":0.19447148311111845,"34":0.1416692735802218,"35":-0.04552840089708869,"36":0.06291950901735051,"37":-0.00037143563041802967,"38":-0.23821412145017737,"39":0.23094245409543632,"40":0.15149406979944965,"41":-0.012375786894075836,"42":-0.11110334477665032,"43":0.29727119863259444,"44":-0.22911043665093794,"45":-0.2482853905285548,"46":0.03436996909951678,"47":-0.209356160310706,"48":-0.09252008267152292,"49":-0.08106421943937639}},{"sx":1,"sy":1,"depth":50,"w":{"0":0.045819528876168594,"1":-0.09982342414937699,"2":0.2202106554547408,"3":-0.004236870567746848,"4":-0.02225577942829837,"5":0.09473987001048458,"6":0.03653554371385225,"7":-0.1337726912082184,"8":-0.04354010342256257,"9":-0.0475471951460279,"10":0.11383506789475178,"11":0.16630380168437825,"12":0.145116034166585,"13":-0.017154989551544604,"14":-0.050144730037279074,"15":-0.034644521347263375,"16":0.21839960506952708,"17":-0.05540397670870143,"18":-0.09657255085302935,"19":-0.07053654236611631,"20":0.1869027735115734,"21":-0.20326891788762222,"22":-0.08889710881593013,"23":-0.1419401793863172,"24":0.06331441464581176,"25":0.1705878074076485,"26":0.20300292142031656,"27":-0.13731506749053238,"28":-0.09506560188312296,"29":-0.04318185492897669,"30":-0.0628449514277391,"31":0.025957857604306918,"32":0.10064289550991457,"33":-0.10150794304462846,"34":-0.19931280139429378,"35":0.2694606458584088,"36":0.2527811263607159,"37":-0.04040713669039738,"38":-0.022027102294238255,"39":-0.29137386546313293,"40":-0.10578711658565244,"41":0.10464222690279465,"42":0.18609888899232438,"43":0.0359509920559204,"44":0.03577849120141319,"45":0.025170952217094998,"46":0.06858925413054921,"47":-0.21396469668487386,"48":-0.17963960144793834,"49":0.012198635217933866}},{"sx":1,"sy":1,"depth":50,"w":{"0":-0.1572358847118828,"1":0.047649329347143166,"2":0.031574586133575756,"3":0.19352503714768968,"4":-0.06676690293470629,"5":-0.07489864955823347,"6":0.3365527799898022,"7":0.1156030158438029,"8":0.01846152814047416,"9":-0.32413690644888016,"10":-0.08948901217944893,"11":0.23358870107046026,"12":0.13874261964477422,"13":0.10001094017127117,"14":-0.02196547022288029,"15":0.04046153279784554,"16":-0.04823543959884714,"17":-0.2755318633319883,"18":0.027130118012066842,"19":0.13856424336579265,"20":0.09727693216122914,"21":-0.09271585280048758,"22":-0.06956278240125269,"23":0.04566018582656946,"24":0.08559716119346464,"25":0.08995177668088003,"26":0.043483791010852084,"27":-0.036119694737201745,"28":0.18296102127264174,"29":-0.0267422039992962,"30":-0.16305872834901183,"31":-0.009202578925054574,"32":-0.03221388830788393,"33":-0.02190900550272798,"34":0.010612448933232453,"35":-0.16032488581197998,"36":0.0974138175347826,"37":-0.03105468959556936,"38":0.19467594231816074,"39":0.04940977223253082,"40":0.018972105401688782,"41":-0.21157086781849418,"42":0.028798024825107134,"43":-0.08729423964645049,"44":0.2674733702557561,"45":0.11386482113330154,"46":-0.05123884384454641,"47":0.037874612148000135,"48":0.04979431385664626,"49":-0.1119054255533211}},{"sx":1,"sy":1,"depth":50,"w":{"0":-0.06222526114897462,"1":-0.17194485407568724,"2":0.003633317980011764,"3":-0.026243838502448175,"4":-0.042775292832211244,"5":0.02490381727277535,"6":0.04708955844897116,"7":-0.022581141652860747,"8":0.305415182413725,"9":-0.3338219308151625,"10":0.13783123946737916,"11":-0.21827826876879616,"12":0.23480090651090416,"13":0.15117048278447917,"14":-0.17537628197653396,"15":0.2766372403258488,"16":-0.0654285441770988,"17":0.0842567484376807,"18":-0.14296071579501715,"19":0.059530571998176914,"20":0.12390074340694793,"21":0.39296861695448576,"22":-0.10194569406831536,"23":-0.11286810858419871,"24":-0.14281850511675537,"25":0.030176274494234316,"26":-0.01309715075862381,"27":0.16971411843960954,"28":0.06771755223857615,"29":-0.05486688676858412,"30":-0.19551215625939253,"31":-0.3169953630595893,"32":0.05090019002556585,"33":-0.008122123813735704,"34":-0.002008119527316399,"35":0.024922088819447418,"36":-0.09298719526461792,"37":0.11982291962422811,"38":0.10958532494878079,"39":0.13663996066930595,"40":-0.2805558186732184,"41":-0.08234493349191987,"42":0.06699997384347234,"43":-0.04185729211639304,"44":-0.01748535218380917,"45":-0.019098613996286967,"46":-0.1663412251607886,"47":0.21176876211460582,"48":-0.16646538207407116,"49":0.0797961833889512}},{"sx":1,"sy":1,"depth":50,"w":{"0":0.10006565877653295,"1":0.007328721518784217,"2":0.04366601259563449,"3":0.06024939786826073,"4":0.11774996656864409,"5":-0.009519967734968358,"6":-0.18788649531548132,"7":-0.2255399848345615,"8":0.013766107620715012,"9":-0.10505494503004975,"10":0.04895188412115573,"11":-0.02648200474172456,"12":0.13709277256087624,"13":0.04766589494793362,"14":-0.12433638703798787,"15":0.15917277037513858,"16":-0.2906625657996255,"17":-0.17453743838992364,"18":-0.12444171188385138,"19":0.019034763199637032,"20":0.027753819798800174,"21":0.14133012708901754,"22":-0.26137089521848855,"23":-0.04156462979031187,"24":0.061620263298945134,"25":-0.0588312462892175,"26":-0.006050376687527181,"27":0.05011361978137328,"28":-0.21068285314394364,"29":-0.17715003821678565,"30":0.08951817890733843,"31":-0.04270943713542135,"32":-0.22372798149037373,"33":-0.14501484947555782,"34":-0.027547766962702884,"35":0.006600842675454222,"36":-0.12349622354526223,"37":-0.05556019318207039,"38":0.029383026867336598,"39":0.1382334073920714,